5619 50
</s> -0.010000 0.003628 -0.000633 0.002167 -0.006257 -0.002545 -0.006326 0.008267 -0.007461 0.001635 -0.007874 0.005915 0.003902 -0.001827 -0.008239 0.008700 -0.004799 0.002074 -0.005490 0.006727 0.004622 -0.004976 0.004819 -0.004146 0.009819 -0.008504 0.000997 0.002815 0.009841 0.003192 0.004811 0.007753 -0.002675 0.007077 -0.006331 0.009070 -0.001574 -0.000033 0.006082 0.008644 -0.006858 -0.003715 -0.003828 0.006674 -0.005862 0.002666 -0.009233 0.009341 0.009380 -0.009113 
， 0.053568 0.039742 -0.006449 0.108333 0.194761 0.128695 -0.202235 0.061250 -0.035331 0.145987 -0.030538 -0.061867 -0.016759 -0.007305 0.049536 -0.142683 -0.037539 0.039098 0.150981 -0.257927 -0.097512 0.232924 0.115825 0.076430 0.065863 -0.084379 0.149529 -0.026155 0.000170 -0.175016 -0.177787 -0.010074 0.067474 -0.017277 0.105943 -0.023946 -0.000365 0.129827 -0.336074 0.149528 -0.080433 0.029441 -0.199616 0.048903 0.020113 0.150605 -0.195786 0.228976 -0.092552 -0.223886 
的 0.053066 0.200068 -0.047845 0.035558 0.108067 0.097036 -0.162727 0.108716 0.003997 0.180219 0.048947 -0.043247 0.061442 0.035611 -0.003151 -0.099242 -0.068377 -0.034518 0.171025 -0.218800 -0.239606 0.166850 0.064096 0.162734 0.234903 -0.159723 0.225673 -0.032548 -0.073805 -0.197488 -0.108494 -0.031204 0.141776 -0.099518 0.053612 -0.069565 -0.016119 0.066162 -0.410995 -0.023142 -0.130943 0.049059 -0.339634 0.082933 -0.004873 0.074688 -0.157159 0.163047 0.004044 -0.180004 
。 0.012410 0.035634 0.042219 0.153685 0.258181 0.159245 -0.131836 0.062148 -0.040943 0.118536 -0.063306 -0.118439 -0.053086 -0.014965 -0.021814 -0.105461 -0.059713 -0.058142 0.143067 -0.142742 -0.137799 0.220419 0.145247 0.033963 0.023842 -0.186001 0.070677 0.019345 0.003873 -0.140793 -0.213359 0.031777 0.162315 0.020885 0.018301 -0.089810 -0.025947 0.124391 -0.336607 0.040330 -0.139265 -0.037751 -0.197938 0.080382 0.088193 0.158843 -0.231616 0.340403 -0.102387 -0.225026 
] 0.141138 -0.079639 -0.111744 0.071899 0.297143 -0.263897 -0.305924 0.173213 0.034284 0.130416 0.233887 -0.021382 0.202722 -0.182556 -0.017544 0.164282 -0.068758 -0.163536 0.041942 -0.328747 -0.066485 0.103240 -0.096019 -0.000702 -0.101695 -0.489284 -0.098683 -0.124150 0.260412 -0.040700 -0.422911 0.166061 -0.033708 -0.055313 -0.212448 0.388689 0.218081 0.116176 -0.451588 0.377286 -0.084378 -0.284940 -0.385460 -0.178643 0.054671 0.188988 -0.400153 0.499499 -0.039259 -0.067861 
一 0.103901 0.227275 -0.202302 0.029325 0.110196 0.064562 -0.131076 0.152980 0.022975 0.179209 0.094372 0.048326 0.052444 0.177516 0.184238 -0.069994 0.072466 -0.069364 0.153949 -0.329418 -0.052846 0.079901 0.127261 0.085613 0.081472 -0.017751 0.126948 0.074354 -0.129365 -0.193490 -0.139484 -0.046697 0.126396 0.014192 -0.037295 -0.043780 0.096852 0.049346 -0.394627 0.152957 -0.092273 -0.030896 -0.338042 -0.016890 0.006975 -0.034684 -0.353350 0.160626 -0.211752 -0.182645 
、 -0.002664 0.325501 0.284516 0.141296 0.321713 -0.037749 -0.386275 0.028346 0.002381 -0.059455 0.073888 0.000070 0.198378 -0.373675 0.077088 0.262929 -0.128557 -0.047541 0.099072 0.095513 -0.240733 0.245455 -0.160335 0.166358 0.307586 -0.122962 0.200994 -0.073678 0.054457 0.060724 -0.113109 -0.099651 0.365915 0.166315 0.235006 0.282396 -0.023040 0.160007 -0.308479 -0.123109 0.048272 -0.563976 -0.284041 0.142658 -0.055496 0.367397 -0.242942 0.103766 0.250571 -0.280426 
1 0.128356 -0.503811 0.077314 0.514684 0.632668 -0.082534 -0.181554 0.162505 -0.046702 -0.121254 0.131388 -0.117087 0.122036 -0.238299 0.012589 -0.184115 -0.193421 -0.208353 0.040452 -0.310459 -0.038719 0.207156 0.027517 -0.313738 -0.245226 -0.638275 -0.195872 0.048597 0.283788 -0.196974 -0.455057 0.397948 -0.072498 -0.061939 0.011670 0.338857 0.527532 0.060530 -0.417900 0.330490 -0.282442 -0.046558 -0.079806 0.051062 0.051501 0.405864 -0.529247 0.278232 -0.019856 -0.021905 
在 0.049239 0.054407 -0.040227 0.067526 0.194251 0.195657 -0.180032 0.123612 -0.140341 0.150104 -0.069678 0.081655 0.018934 -0.013644 -0.059123 -0.074041 -0.016260 -0.106914 0.115721 -0.275244 -0.129169 0.035192 0.056360 0.054422 0.158015 -0.038727 0.130331 0.078650 -0.062061 -0.142625 -0.305187 0.194693 0.194865 0.063747 0.046948 0.013337 0.043380 0.097944 -0.434856 0.083957 -0.254275 -0.044244 -0.190439 -0.016325 0.118293 0.086439 -0.184339 0.220874 -0.112315 -0.225237 
人 0.063512 0.130731 0.001518 -0.109242 0.226363 -0.037425 -0.014560 0.021715 -0.021999 0.405515 -0.021511 -0.114541 -0.041916 -0.052672 0.027361 0.049845 -0.162943 0.045489 0.224317 -0.214805 -0.001640 0.243713 0.037282 0.111731 -0.089941 -0.192791 0.043979 -0.154149 0.032503 -0.160783 -0.304205 0.107604 0.073824 -0.166844 -0.144639 -0.082238 -0.358320 -0.000862 -0.297738 0.027839 -0.174032 0.130120 -0.368663 -0.015802 -0.086726 0.236267 -0.406262 0.026027 -0.081634 -0.345789 
0 0.299901 -0.464909 0.139466 0.606710 0.448143 -0.094796 -0.230521 0.277084 0.018025 -0.008401 0.384971 -0.196764 0.028973 -0.269085 0.067988 -0.093441 -0.239178 -0.126353 0.052606 -0.416509 0.034231 0.286850 0.077135 -0.208957 -0.234631 -0.571001 -0.247750 0.058251 0.314574 -0.287504 -0.406891 0.278233 -0.185912 -0.284870 -0.110306 0.328676 0.305964 0.162108 -0.467038 0.445967 -0.095239 -0.100116 -0.062075 -0.038060 0.101122 0.293590 -0.329519 0.264040 0.029737 0.080028 
是 0.190475 0.425746 -0.048977 0.158271 0.045851 0.048116 -0.135415 0.008480 -0.129257 0.253455 0.288898 -0.027382 -0.060450 0.124549 0.124754 -0.149710 -0.014913 0.051021 0.171250 -0.293818 -0.239979 0.085323 0.112892 0.100517 0.041161 0.032553 0.132607 -0.006140 -0.027394 -0.172672 -0.014956 0.003103 0.110291 -0.150991 -0.057103 -0.160094 -0.098142 0.091498 -0.232781 0.038561 -0.284239 -0.009510 -0.360228 0.203274 -0.003186 0.039120 -0.122917 0.175206 -0.169817 -0.129351 
了 0.184984 0.072103 0.040599 0.082581 0.186914 0.237126 -0.102326 0.168696 -0.051257 0.142025 -0.066261 0.038683 -0.115646 0.200150 0.167918 -0.268641 0.087717 -0.011017 0.097378 -0.309873 -0.094105 0.169953 0.198164 -0.015352 0.040502 0.176719 0.123667 0.081243 -0.030600 -0.122278 -0.287511 -0.029305 0.110571 -0.062768 -0.025220 -0.106104 -0.089654 0.122491 -0.272326 0.191380 -0.047009 -0.023749 -0.251257 0.017524 0.020762 0.095341 -0.272800 0.266986 -0.154686 -0.173831 
“ 0.156512 0.217961 -0.216646 0.142821 0.139018 -0.107993 -0.187476 0.223221 0.000033 0.242518 0.083592 -0.034706 -0.027547 0.252306 0.229362 -0.115003 -0.106251 -0.035565 0.149504 -0.249424 -0.205096 0.093852 0.270944 -0.044028 0.024445 0.008427 0.183094 -0.024758 -0.134494 -0.227259 -0.171341 0.003535 0.226250 0.013181 0.063626 -0.178736 0.030480 -0.039607 -0.065666 0.105566 -0.034468 -0.178793 -0.135121 0.243452 -0.016097 0.112507 -0.224666 0.276387 -0.158772 -0.139144 
有 0.100599 0.233148 0.080025 0.106154 0.089412 -0.029345 -0.105917 0.011774 -0.086251 0.285842 0.125348 -0.163774 -0.111146 -0.034281 -0.009869 -0.129782 -0.098462 0.103452 0.136099 -0.350351 -0.168724 -0.041959 0.183961 0.178741 0.024730 -0.048673 0.203090 -0.070421 0.084133 -0.317535 -0.038375 -0.065281 -0.056437 -0.017680 0.049107 -0.228850 -0.106050 0.007090 -0.356229 0.086733 -0.290885 0.079665 -0.374279 0.106479 -0.004490 0.029289 -0.084134 0.254741 0.050423 -0.170306 
不 -0.003935 0.340073 0.076055 0.234555 -0.044834 0.136070 -0.134085 0.007566 -0.158876 0.361910 0.133003 -0.175101 -0.204665 0.075379 0.069331 -0.120596 0.011775 0.180515 0.170002 -0.509306 -0.255532 0.149892 0.325766 0.137588 0.034944 0.045680 0.323688 0.167816 0.026391 -0.286126 -0.113500 -0.050389 0.117281 0.038152 0.009217 -0.190313 -0.278145 0.020764 -0.155512 0.076172 -0.175975 0.110201 -0.149971 0.054840 -0.140388 0.178956 -0.145753 0.115515 -0.162742 -0.167354 
” 0.177944 0.240294 -0.176813 0.170879 0.171525 -0.101687 -0.190210 0.125391 0.046413 0.227483 0.164937 -0.061379 -0.020538 0.205915 0.192713 -0.072295 -0.104129 -0.031735 0.163410 -0.206658 -0.135811 0.136471 0.163094 -0.082979 0.071220 0.062618 0.189459 0.041123 -0.155950 -0.232031 -0.189425 -0.038408 0.247778 0.090286 0.072609 -0.181597 0.071170 -0.032311 -0.064265 0.093627 -0.009507 -0.241446 -0.220598 0.164340 -0.007478 0.058956 -0.279950 0.265488 -0.123724 -0.192590 
中 -0.042257 0.107255 0.014966 0.013678 0.220962 0.171725 -0.126082 -0.073576 -0.003515 0.132833 0.071593 0.009015 0.274484 0.071172 -0.038981 0.222239 -0.061626 -0.251944 -0.031835 -0.280397 -0.294190 0.257942 -0.099690 0.039008 0.104538 -0.140470 -0.024179 -0.044391 0.095794 -0.006084 -0.353511 0.079428 0.123590 -0.140580 0.057634 0.016139 0.087979 0.019196 -0.304013 0.061032 -0.064765 -0.199068 -0.431377 0.123528 0.126422 0.254336 -0.171837 0.444738 0.046305 -0.241967 
年 0.247690 -0.156717 -0.227031 0.458336 0.292187 0.133773 -0.054755 -0.084413 -0.277379 0.030447 0.038885 -0.257524 0.165625 -0.182823 0.156473 -0.236986 -0.240986 0.001400 -0.026127 -0.421182 -0.173793 0.290232 -0.143076 -0.168510 -0.124997 -0.488818 -0.084998 0.083897 0.103269 -0.052357 -0.435326 0.361775 -0.143184 -0.006103 -0.103510 0.032949 0.380422 0.008061 -0.278375 0.261587 -0.158400 0.050195 -0.169872 -0.026784 0.375445 0.361558 -0.443125 0.220559 -0.173954 -0.141531 
2 0.132622 -0.477787 0.095581 0.495376 0.564828 0.007098 -0.220110 0.135061 -0.033714 -0.099480 0.228408 -0.208790 0.128726 -0.306322 -0.030642 -0.152728 -0.283926 -0.146273 0.002540 -0.402846 -0.075087 0.234479 0.102812 -0.350315 -0.275993 -0.694291 -0.177986 0.057777 0.226908 -0.177032 -0.532987 0.287623 -0.115544 -0.097260 0.009315 0.335507 0.495894 0.078093 -0.332977 0.446198 -0.192738 -0.140806 -0.114605 0.041280 0.143667 0.356820 -0.396050 0.240265 0.024865 -0.020987 
大 0.196064 0.240394 -0.103569 0.060809 0.141372 -0.030773 -0.195822 0.109584 0.141538 0.117703 -0.067093 0.139861 -0.004895 0.210538 0.009093 -0.129961 -0.138745 -0.096250 0.086353 -0.125938 -0.319672 0.101602 -0.059646 0.157484 0.225269 0.037741 0.137232 -0.092997 0.249195 -0.162347 -0.167398 -0.110130 -0.039916 0.148120 -0.066270 0.053108 -0.008372 0.000777 -0.262171 0.097493 -0.141711 -0.175116 -0.242234 0.003412 0.160877 0.262600 -0.202589 0.405796 -0.051566 -0.270245 
上 0.108145 -0.104869 -0.077459 -0.039756 0.240519 0.081285 -0.161442 0.306129 -0.113152 0.254586 0.082110 0.142255 -0.065811 -0.029810 0.106300 -0.133211 0.140122 -0.240469 -0.129151 -0.433554 -0.231283 0.121503 0.127302 0.065558 0.170990 -0.027733 0.167902 0.085858 0.035448 -0.138756 -0.195842 0.133225 0.142886 0.020068 0.075847 -0.093854 0.269144 0.079367 -0.428550 0.226872 -0.199907 -0.157012 -0.074052 -0.012598 -0.054189 0.150578 -0.235851 0.105172 -0.055108 -0.210006 
国 -0.138008 0.223175 -0.166029 -0.030705 0.454038 0.117062 -0.378210 -0.259873 -0.041167 0.420398 -0.054605 0.179743 0.216337 0.274490 -0.081909 0.291899 -0.185949 -0.185597 -0.320263 -0.185572 -0.337855 0.248951 0.003233 -0.140197 0.034710 -0.409207 0.005534 0.102050 0.011204 0.014794 -0.388353 0.158123 0.107100 -0.301586 -0.076781 0.118283 -0.082835 -0.270312 -0.368740 -0.052790 -0.404340 -0.196905 -0.285383 0.374777 0.363521 0.244038 0.105657 0.473706 -0.025485 -0.178441 
为 -0.011807 0.240592 0.067063 0.231172 0.144495 -0.052873 -0.123910 0.028910 -0.053944 0.117515 0.075218 -0.081219 0.116974 0.073026 0.045520 -0.053129 -0.319010 -0.046968 0.268446 -0.301908 -0.134346 0.233000 0.066454 0.081423 -0.000672 -0.173284 0.191545 0.074928 -0.123860 -0.175481 -0.203835 -0.026311 0.102888 -0.063628 -0.071407 -0.139644 -0.011857 0.056101 -0.239434 0.105411 -0.149014 -0.113798 -0.332755 0.098086 0.000669 0.187348 -0.033327 0.148754 -0.045769 -0.121349 
和 -0.051282 0.324470 0.158384 0.079903 0.220126 0.123869 -0.238384 -0.071588 0.093992 0.043286 0.008511 0.037966 0.232468 -0.124563 0.134932 0.050606 -0.130457 -0.079183 0.088117 -0.096676 -0.213183 0.308807 -0.061663 0.117733 0.369440 -0.214166 0.224244 -0.181957 0.061833 -0.064353 -0.184917 -0.081145 0.162379 -0.045110 0.276148 0.252993 -0.042903 0.095614 -0.505944 -0.054359 -0.101427 -0.112781 -0.196499 0.263539 -0.113864 0.196773 0.024010 0.118436 0.025558 -0.197749 
会 0.361150 0.231985 0.120140 -0.517342 -0.004064 0.272729 -0.223298 -0.290259 -0.055156 0.168405 -0.122108 -0.015612 0.212364 0.267771 0.032356 0.055095 -0.137343 -0.066933 0.060114 -0.407947 -0.377067 0.315294 0.085468 0.178010 0.289169 0.041792 -0.107777 -0.191519 0.116074 -0.018190 -0.263922 0.226635 -0.043780 0.191353 -0.116707 0.058311 -0.324656 -0.069233 -0.317582 0.112222 -0.067872 -0.258010 -0.194610 0.188550 0.047653 0.289047 -0.294108 0.470148 -0.363753 0.098244 
到 0.161576 -0.021172 0.067755 0.082131 0.175029 0.130238 -0.091381 0.243505 0.009765 0.236529 0.064122 0.178164 -0.136481 -0.051692 0.032324 -0.225355 0.046300 -0.008232 0.222820 -0.302448 0.047311 0.130376 0.145420 -0.029238 -0.013258 0.171542 0.176281 0.010282 0.139360 -0.212294 -0.342242 0.002080 0.154619 -0.045309 -0.061373 0.107274 -0.002885 0.252862 -0.312539 0.119269 -0.229017 0.068075 -0.058188 -0.048803 0.029413 0.121608 -0.343688 0.382244 -0.170441 -0.346579 
时 0.116151 -0.180665 0.024575 0.028457 0.028726 0.348896 -0.235980 0.159681 -0.029162 0.003402 0.016961 -0.004364 -0.193728 -0.071167 -0.096107 -0.091009 -0.019551 0.093421 0.062922 -0.331081 -0.083714 0.030707 0.151313 0.129223 0.070235 -0.048765 0.085358 0.142582 0.101950 -0.314474 -0.252123 0.329408 0.222717 0.129261 0.099178 0.114512 0.109653 0.035617 -0.441171 0.071267 -0.319190 0.166574 -0.112698 0.049817 0.078216 -0.005764 -0.404041 0.180236 -0.394877 -0.219899 
发 0.009132 -0.068643 -0.049647 -0.279420 0.408341 -0.010710 -0.187445 0.003388 -0.079114 -0.045341 -0.539976 0.200825 0.141112 0.063658 0.192531 -0.027520 -0.227026 -0.192320 0.136715 -0.205494 -0.080310 0.346405 0.115198 -0.023671 0.202026 0.005712 -0.039730 0.217318 -0.021759 -0.325214 -0.386712 -0.073113 0.005359 0.107355 0.375700 -0.045120 -0.129973 0.059154 -0.228501 0.090019 -0.193133 -0.123603 -0.160958 0.234240 -0.046111 0.198047 -0.210737 0.439183 0.091280 -0.146392 
日 -0.070876 -0.555403 0.056169 0.294885 0.620686 0.308422 -0.128846 -0.198393 -0.135746 0.053774 -0.016917 -0.069072 -0.020864 -0.089225 -0.048635 -0.043223 -0.261771 -0.166161 -0.225789 -0.055164 -0.404199 0.104485 0.151693 -0.194097 -0.116682 -0.287298 -0.307533 0.136402 -0.002766 -0.170811 -0.430608 0.476302 0.388196 0.094804 0.072315 -0.017683 0.266058 -0.046378 -0.411123 0.087434 -0.313590 0.043537 -0.063520 0.192058 0.189227 0.481427 -0.560344 0.521565 -0.090907 -0.257308 
出 0.026048 -0.040661 0.160470 -0.117919 0.252773 0.207199 -0.221025 0.182150 -0.013365 0.127765 -0.212555 -0.056373 0.085188 0.112073 -0.048505 0.016060 -0.023072 -0.116389 0.064406 -0.233933 -0.166437 0.286458 0.152638 0.021766 0.176327 -0.039470 0.279790 0.065084 -0.105437 -0.198098 -0.226235 -0.038554 0.011470 0.055324 0.005757 -0.078720 0.096765 0.113755 -0.261417 0.119077 0.031917 -0.143225 -0.213470 -0.008183 0.027859 0.090995 -0.236186 0.284464 -0.155937 -0.224441 
这 0.136682 0.231212 -0.055394 0.112480 0.054883 0.090119 -0.060933 0.113538 -0.043297 0.364014 0.129387 0.039559 -0.008789 0.185214 0.103450 -0.237438 0.031006 0.125303 0.232987 -0.412539 -0.205910 0.044147 0.262517 0.068411 0.018601 0.100516 0.183980 0.001664 -0.107880 -0.304446 -0.094959 -0.074330 0.043157 -0.247698 -0.103435 -0.299311 -0.122160 0.024942 -0.114412 0.093083 -0.329646 -0.024502 -0.345064 0.129076 0.036399 -0.078033 -0.310558 0.288132 -0.124680 -0.083858 
个 0.201414 0.257586 -0.178031 0.094289 0.108569 0.012134 0.006860 0.092428 0.007269 0.259490 0.159682 -0.037475 0.019891 0.078899 0.181624 -0.150312 0.110088 -0.016808 0.230417 -0.487823 -0.134151 -0.027566 0.000647 -0.084979 0.082728 -0.096410 0.026599 0.042647 -0.069089 -0.354180 -0.172125 0.080189 0.045042 -0.090488 -0.144240 0.123950 0.158995 0.079027 -0.373863 0.303304 -0.170117 -0.025246 -0.305246 0.037523 0.067666 -0.054402 -0.297838 0.188670 -0.216272 -0.083441 
生 0.119133 0.333389 -0.045920 0.230496 0.107792 -0.230316 -0.066857 -0.089968 -0.063012 -0.101655 -0.312218 -0.179851 -0.153592 0.043738 -0.185112 -0.312322 -0.154874 0.057780 0.135757 0.043065 -0.005877 0.267616 -0.195724 -0.113458 0.139077 0.070275 -0.039432 -0.140821 -0.054767 -0.202220 -0.237556 0.085453 0.094392 0.023613 0.262158 -0.011569 0.028994 0.074273 -0.635805 -0.056261 -0.380498 -0.171969 -0.485157 0.116555 0.011801 -0.024379 -0.111523 0.142344 -0.330276 -0.221875 
行 -0.032506 -0.213770 0.093058 -0.107300 0.346042 0.066332 -0.394889 -0.028279 -0.112673 0.197569 -0.138992 -0.258426 0.101023 0.099047 -0.007147 0.509350 -0.272055 -0.094784 0.428067 -0.382897 -0.070073 0.373568 -0.063476 0.168147 0.146125 -0.058051 0.362145 0.083210 -0.060165 -0.199887 -0.033300 0.106435 0.265571 0.121725 0.219531 0.240999 -0.007390 0.149137 -0.088965 0.052766 -0.140461 -0.047672 -0.177328 0.029552 0.487411 0.235485 -0.190535 0.142113 -0.314449 -0.011452 
对 0.013097 0.082533 0.084831 0.007722 0.218523 0.174642 -0.199390 -0.129956 -0.077749 0.278588 -0.034386 -0.308771 0.199265 0.103638 -0.045235 0.063503 -0.123295 -0.079894 0.230864 -0.198198 -0.161564 0.153782 0.044623 0.157849 0.055561 -0.174684 0.205283 -0.045179 -0.272626 -0.452516 -0.166032 -0.047775 0.095485 -0.019214 0.142176 0.015611 -0.274978 0.111001 -0.186432 0.105794 -0.231190 -0.099702 -0.236787 0.114605 -0.059350 0.026204 -0.106524 0.166411 -0.048324 -0.302604 
要 0.198888 0.417062 0.311296 -0.083556 0.150642 0.188769 -0.204377 -0.196923 0.116238 0.219652 0.140526 -0.276456 0.130575 0.234397 0.051626 -0.025648 -0.053975 0.009387 0.124446 -0.388020 -0.088125 0.526635 0.177221 0.181440 0.148183 0.194109 0.332584 -0.057733 -0.055945 -0.003456 0.057620 -0.163239 0.258910 -0.202008 0.252168 0.092989 -0.023232 0.312659 -0.221369 0.141530 -0.005150 0.022154 -0.107071 0.167419 -0.183944 0.100941 0.030135 0.456711 -0.273001 -0.052109 
3 0.141937 -0.588783 0.186519 0.439029 0.589126 -0.123605 -0.207859 0.171066 -0.101480 -0.050109 0.239315 -0.149737 0.057629 -0.268180 0.012180 -0.128211 -0.183191 -0.158312 0.043400 -0.356258 0.019575 0.201582 0.118179 -0.211343 -0.227306 -0.670741 -0.223997 0.014219 0.185089 -0.253664 -0.493065 0.300155 -0.135829 -0.159279 -0.047247 0.406201 0.522995 0.054796 -0.486132 0.411875 -0.207912 -0.083987 -0.105123 0.040657 0.006729 0.369604 -0.393974 0.204253 -0.033006 -0.050978 
来 0.176484 0.199637 -0.016894 0.004627 0.063461 0.252640 -0.076273 0.220610 -0.102869 0.357060 -0.054858 0.153090 -0.167019 0.040322 0.157856 -0.233557 0.041964 0.122487 0.031706 -0.179701 -0.165808 0.296175 0.127799 -0.042230 0.109241 0.151869 0.184011 0.109366 -0.020401 -0.178852 -0.317049 -0.020024 -0.007466 0.042041 -0.021302 0.016407 -0.026984 0.174478 -0.190822 -0.011734 -0.183496 -0.004338 -0.078416 0.039049 0.219571 0.104698 -0.225084 0.281011 -0.285769 -0.404693 
家 0.105099 0.433511 -0.062772 0.016979 0.155728 -0.071731 0.020658 0.107920 -0.104934 0.299204 -0.139187 0.087910 -0.225148 -0.006861 0.130530 -0.066340 -0.056526 -0.055746 -0.059826 -0.000085 0.016457 0.375237 0.051247 0.029305 0.075212 -0.014659 -0.017173 -0.030908 -0.203463 -0.006420 -0.307192 0.187132 0.181952 -0.147304 -0.154097 0.136807 -0.138615 0.282853 -0.542655 0.203542 -0.276684 0.002468 -0.286207 0.026756 0.312794 0.017308 -0.106663 0.164451 -0.160812 -0.301471 
以 0.056006 0.199973 0.191991 0.021469 0.084265 0.187452 -0.255964 -0.031116 -0.183249 0.211808 0.190861 -0.126641 0.091147 -0.025218 -0.039645 0.072226 -0.140254 0.022713 0.241159 -0.331714 -0.149633 0.136448 0.029462 0.046662 -0.125416 -0.169609 0.351548 0.133068 0.040198 -0.276352 -0.119741 0.042100 0.085361 -0.152080 0.007342 -0.034437 0.118454 0.115084 -0.291736 0.034824 -0.068350 -0.035476 -0.355751 -0.001322 -0.076143 0.254229 -0.082616 0.132324 0.077106 -0.084737 
地 -0.052060 0.232685 0.011804 0.262302 0.466341 -0.061368 -0.192256 0.200350 -0.109582 0.416868 -0.059487 0.224667 0.201436 0.024957 -0.101092 -0.042956 -0.050197 -0.081750 0.112250 -0.319066 0.004889 -0.005519 0.123726 0.215770 0.230762 0.050031 0.033073 -0.079085 0.049699 -0.206597 0.016046 -0.009864 0.150298 0.155656 -0.116183 0.145631 0.113579 0.223977 -0.210216 0.242355 -0.145457 0.136942 -0.073831 0.213989 0.180674 0.215246 -0.009768 0.246736 0.127044 -0.241906 
公 0.148811 0.045951 0.075580 -0.178978 0.481952 -0.325413 -0.347885 0.027437 0.024309 0.334906 0.055494 -0.119152 -0.081264 -0.064697 -0.294519 0.115389 -0.348487 -0.129310 0.115223 -0.418931 0.043503 0.200460 0.234220 0.393955 -0.052026 -0.366446 0.393138 0.015246 0.165129 0.017245 -0.360069 0.378775 0.315379 0.354909 -0.082247 0.198086 -0.157780 0.015041 -0.287185 -0.127679 -0.060158 -0.030793 -0.306989 0.195624 0.201925 0.097407 -0.118334 0.239111 0.039749 0.198802 
市 0.089416 0.170052 0.372686 -0.195871 0.503466 -0.374722 -0.081604 -0.032334 0.040643 0.329615 -0.331212 0.197002 0.097984 -0.226013 -0.142291 0.027476 -0.402552 -0.235927 0.153079 -0.081459 -0.176823 0.011358 -0.007545 0.220105 0.226263 -0.326778 -0.011425 -0.195284 0.237022 0.068152 -0.227494 -0.196635 0.215160 0.402039 -0.137762 0.352933 0.159776 0.459019 -0.161359 0.174512 -0.342222 -0.457975 -0.098368 -0.048593 0.433752 0.187114 -0.470599 0.394896 -0.150548 -0.117601 
作 0.037418 0.298932 0.207431 0.128807 0.228857 0.325325 -0.055019 -0.140942 0.055821 0.035005 -0.273427 -0.089539 0.280188 0.107536 0.135275 0.062318 -0.162936 -0.043288 -0.066529 -0.339540 -0.049743 0.608884 -0.010313 0.136937 0.071358 0.086440 0.300044 -0.077163 -0.070551 0.095339 0.001051 0.069809 0.028169 -0.024413 0.019990 0.347087 -0.104448 0.214368 -0.169405 0.125000 0.190932 -0.017776 -0.455337 0.321062 0.089399 0.072143 -0.264830 0.255988 -0.079281 -0.176791 
后 0.018399 -0.036385 -0.120540 0.060392 0.125068 0.284140 -0.271728 0.210584 -0.186762 -0.042676 -0.245632 -0.053779 -0.121770 -0.007205 0.072257 -0.071212 -0.026651 -0.029315 0.220329 -0.224735 0.076870 0.108733 0.207567 -0.133740 -0.096193 0.143774 0.250621 0.195754 0.046920 -0.200626 -0.195768 0.148519 0.165870 0.143059 0.092823 -0.100462 -0.018209 0.232456 -0.444297 0.120114 -0.004925 0.038620 -0.251624 -0.102963 0.098805 0.174218 -0.305699 0.079554 -0.317249 -0.334686 
工 0.021864 0.280202 0.182777 0.337378 0.278713 -0.062075 -0.017231 -0.071642 0.087653 0.119512 -0.370585 -0.085771 0.111073 -0.064667 0.140221 0.083233 -0.161632 0.067336 0.020458 -0.386177 0.010163 0.458226 0.072910 0.154475 0.045559 0.159574 0.195122 -0.185844 0.059953 0.032095 -0.259790 0.300768 0.010113 0.028388 -0.111326 0.707453 -0.108540 0.368275 -0.161868 0.300647 0.287016 0.126422 -0.412172 0.254103 0.230797 -0.009702 -0.264097 0.337248 -0.181322 -0.097896 
他 0.228910 0.269481 -0.089308 0.131059 -0.000276 0.163044 -0.174753 0.209377 -0.042633 0.206204 -0.101356 -0.093304 -0.215381 0.266683 0.224871 -0.177278 0.052278 -0.007427 0.057211 -0.188135 0.133049 0.272027 0.143870 0.070663 0.008106 0.147399 0.235222 -0.092480 -0.068737 -0.225824 -0.158141 0.271361 0.050015 -0.195322 -0.103428 -0.247603 -0.305414 0.090459 -0.371029 0.097189 -0.322118 0.145444 -0.165098 -0.018364 0.058469 -0.001063 -0.240422 0.220040 -0.200248 -0.298918 
多 0.277402 0.115938 0.016399 0.202519 0.063560 0.120912 0.127479 0.168213 -0.104358 0.376831 0.178202 0.158657 -0.078269 -0.060796 0.038507 -0.162253 -0.006939 0.127983 0.187186 -0.204445 -0.225830 0.184673 0.051534 0.176682 0.074726 -0.075005 0.040337 -0.044435 0.087636 -0.643268 -0.310238 0.000017 -0.106001 0.013869 -0.022133 0.081839 -0.112001 -0.056517 -0.439248 0.014551 -0.095030 -0.031005 -0.245010 -0.036078 0.058744 0.130307 -0.045087 0.179358 -0.085052 -0.106127 
成 -0.146243 0.027608 -0.166858 0.203986 0.076948 -0.066853 -0.031888 0.045767 -0.130658 -0.100072 -0.143728 -0.083092 0.366555 -0.066238 0.178245 -0.094335 -0.124921 0.012049 0.206527 -0.456893 -0.191788 0.387876 0.259152 0.062642 0.050126 -0.146948 0.186524 -0.051174 0.057260 -0.076263 0.066201 -0.166605 -0.167595 0.100778 -0.044077 0.109607 -0.009102 -0.081726 -0.392864 0.236253 -0.119361 -0.168648 -0.566368 0.220228 0.030522 0.254205 -0.142112 0.064274 0.048175 -0.186121 
方 0.026191 -0.031462 0.029287 -0.087432 0.536870 0.202762 -0.383374 0.009459 -0.212215 0.053283 0.009893 -0.072636 0.104221 0.025198 -0.073162 -0.004719 -0.122191 -0.081649 0.027641 -0.372123 0.136458 0.191580 0.230853 0.227483 -0.120376 -0.188059 0.284298 -0.071254 -0.153625 -0.527719 -0.090618 -0.000348 0.159206 0.256040 0.058627 0.068810 -0.130547 0.241314 -0.435191 0.103910 -0.050751 -0.019231 0.007843 -0.050871 -0.027062 0.050576 0.102522 0.350340 0.000144 -0.162596 
现 -0.066323 -0.024561 0.041001 -0.032809 0.122688 0.222395 -0.099943 0.254522 -0.095323 0.316292 -0.499629 0.071096 0.127626 0.005144 0.023351 -0.159460 -0.043317 -0.024705 0.348047 -0.259751 -0.116238 0.224919 0.130247 0.113281 0.130256 0.068210 0.102041 -0.016980 0.042597 -0.240595 -0.251874 -0.215423 -0.073044 -0.071345 0.114708 -0.147219 0.043667 0.156281 -0.209396 -0.002650 -0.093759 -0.053371 -0.280271 -0.025407 0.138651 0.023698 -0.345579 0.160096 -0.126839 -0.148030 
我 0.414705 0.477835 -0.051197 0.230926 0.024812 0.067216 -0.054029 0.021684 0.016288 0.368140 0.038756 -0.162885 -0.339159 0.390311 0.186449 -0.465222 -0.042345 0.068319 0.025011 -0.348023 0.038026 0.315920 0.328576 0.006805 -0.027026 0.249866 0.213761 -0.180152 -0.046910 -0.044047 -0.075378 0.005808 0.039772 -0.203829 0.005497 -0.086377 -0.310957 -0.018058 -0.069726 0.077708 -0.223945 0.045717 -0.077712 0.149264 0.021527 -0.127260 -0.384686 0.392643 -0.313943 -0.238998 
部 0.048689 -0.021666 0.072844 -0.125781 0.549389 -0.001251 -0.360192 -0.252977 0.029969 0.414352 -0.032249 -0.000573 0.462568 -0.289099 -0.395278 0.311724 0.128637 -0.043593 0.047984 -0.456563 -0.187523 0.106405 -0.015609 0.222277 -0.029137 0.127796 0.435142 -0.291617 -0.102746 0.012616 -0.072934 0.161023 0.227890 0.051158 0.154010 0.481384 -0.048439 0.276626 -0.028629 0.303305 -0.052261 -0.155306 -0.267340 0.084754 -0.181221 0.309612 -0.344253 0.400541 0.144237 -0.364664 
过 0.086738 0.057098 0.092605 0.095776 0.084063 0.159495 -0.239191 0.051141 -0.131565 0.008603 -0.120377 -0.032547 -0.241815 0.188913 0.081740 -0.069851 0.022884 0.169557 0.193305 -0.365329 -0.103139 0.190677 0.190768 -0.014258 -0.030586 -0.123042 0.145281 0.015785 0.110830 -0.315581 -0.279083 0.066991 -0.078784 -0.034049 0.059611 0.041065 -0.087136 0.229060 -0.330081 0.041847 -0.050378 -0.102435 -0.187430 -0.072875 0.142954 0.007846 -0.256561 0.179883 -0.259752 -0.072452 
民 -0.180501 0.260156 0.245973 -0.018581 0.619869 -0.044541 0.054882 -0.064443 -0.047194 0.525003 -0.050109 -0.055183 0.036829 0.066106 -0.105113 -0.017688 -0.370565 -0.200597 0.116612 0.011488 0.064979 0.286312 0.067862 0.072184 0.077031 -0.164892 0.004019 -0.279874 0.172899 -0.217456 -0.340486 -0.087029 0.387435 -0.036596 -0.148286 0.431880 -0.140301 0.217636 -0.468985 -0.040705 0.043758 0.053427 0.115128 0.015311 0.161280 0.423478 -0.573218 0.052673 -0.086029 -0.018540 
新 0.217234 0.060322 -0.020868 0.195761 0.510854 -0.050747 -0.151604 0.099974 -0.045172 0.053166 -0.115474 0.206071 0.192204 0.092695 -0.049487 -0.064295 -0.195444 -0.344129 -0.135302 -0.169858 -0.437410 0.565584 0.197534 -0.089816 0.263571 -0.114693 0.105080 0.147488 -0.238086 0.015327 -0.118986 0.003175 0.074852 0.166842 0.271195 0.159072 0.085346 0.045205 -0.205546 0.042244 0.167018 -0.134541 0.002605 0.252572 0.231725 0.199787 -0.292406 0.460079 -0.065256 -0.105844 
月 0.094883 -0.467495 -0.021802 0.497911 0.667538 0.142912 -0.095798 -0.054522 -0.142519 -0.104593 0.030574 -0.262662 0.000499 -0.237913 0.142502 -0.169163 -0.193087 -0.095172 -0.038393 -0.214919 -0.134499 0.152996 0.031027 -0.305544 -0.254782 -0.489926 -0.267858 0.036179 0.154498 -0.056584 -0.482110 0.554845 0.192461 0.058817 -0.034165 0.014745 0.510310 0.101482 -0.337512 0.250512 -0.272715 0.011766 -0.043648 0.114615 0.202620 0.363760 -0.722879 0.329967 -0.173192 -0.107133 
能 -0.044606 0.362369 0.124066 0.256739 -0.142082 0.180785 -0.234508 -0.025915 -0.343844 0.074452 0.173875 -0.055062 -0.152192 -0.021984 0.170174 -0.107709 -0.081809 0.335935 0.121957 -0.444024 -0.225879 0.325499 0.261871 0.015755 -0.001911 0.102477 0.521854 -0.127092 0.277031 -0.297824 -0.053908 -0.346578 -0.105960 0.052095 0.165384 0.220110 -0.239439 0.050815 -0.295327 0.055019 -0.202641 0.212386 -0.229102 0.260409 -0.079645 0.011835 0.009079 0.301097 -0.072204 -0.147304 
业 0.055988 0.523094 0.192329 0.226370 0.195164 -0.648973 0.007108 -0.022132 -0.130334 0.361649 -0.436838 -0.011929 0.139978 -0.134570 0.053500 0.418306 -0.477997 -0.136849 0.073314 -0.404735 -0.157956 0.726022 -0.196412 0.258304 0.096148 0.089595 0.147641 0.226167 -0.142475 -0.236537 -0.394572 0.207739 -0.406773 0.176859 0.020140 0.538460 0.131135 -0.047901 -0.334739 0.425834 -0.076057 -0.146634 -0.155156 0.304446 0.308798 0.089472 -0.139007 0.204127 0.273201 0.044931 
也 0.231226 0.255636 0.015227 0.179524 0.010299 0.153439 -0.139852 0.094371 -0.046445 0.290356 0.063049 0.060112 -0.173432 0.149142 0.093129 -0.211781 -0.006726 0.035463 0.194641 -0.290536 -0.181548 0.221824 0.209632 0.129330 0.121619 0.081708 0.284289 0.046199 -0.014636 -0.189500 -0.143596 0.008143 -0.016601 -0.057688 0.018144 -0.228348 -0.147350 -0.006403 -0.237705 0.128167 -0.218023 0.012960 -0.129563 0.130183 0.045121 0.053283 -0.135281 0.119637 -0.091420 -0.237471 
全 -0.032405 0.039386 -0.055075 -0.150302 0.256027 -0.068079 -0.288221 -0.264975 -0.038963 0.120406 -0.042451 -0.064296 0.356723 0.118826 -0.060629 -0.156215 -0.129711 0.061695 0.006824 -0.462491 -0.099418 0.241544 0.027582 0.017148 0.262768 -0.380330 0.240397 -0.242339 -0.003490 0.222705 -0.514162 -0.419260 0.004779 -0.126647 -0.020813 0.402729 0.075322 -0.000063 -0.462381 0.345412 -0.027503 -0.117984 -0.272193 0.265551 0.126623 0.301098 -0.156427 0.418490 -0.031308 0.229390 
开 0.192483 -0.115166 -0.021044 -0.076492 0.321682 0.142866 -0.187774 0.016554 -0.110308 -0.013859 -0.299252 0.171439 0.220000 0.117624 0.252720 -0.106850 -0.108068 -0.151825 0.184687 -0.352370 -0.047846 0.215219 0.132686 0.000712 0.067380 0.100076 0.156664 0.083278 0.131609 0.030126 -0.230457 0.128990 0.178811 0.551918 0.160069 0.249099 0.099951 0.003388 -0.375858 0.066230 -0.190599 -0.091154 -0.159487 -0.000648 0.359238 0.179446 -0.299556 0.450950 -0.346511 0.010937 
前 -0.007544 -0.067538 -0.164604 0.063597 0.250564 0.201519 -0.192830 0.086259 -0.247424 -0.029976 -0.167478 0.035251 0.026372 -0.052922 -0.210177 -0.006240 -0.085508 0.040602 0.128998 -0.392670 -0.067040 0.131955 0.201281 0.017935 0.002153 -0.104518 0.036684 0.088423 -0.174479 -0.076495 -0.315001 0.139239 -0.008993 0.032232 0.006102 -0.137773 0.059497 0.297001 -0.292603 0.228711 -0.179298 0.002181 -0.249071 0.019376 0.226204 0.077557 -0.173812 0.294580 -0.327766 -0.301264 
进 0.008146 0.053401 0.127526 0.008493 0.213002 0.282904 -0.351917 -0.096755 -0.191792 0.017445 -0.559566 -0.070156 0.284087 0.239834 0.052482 0.290912 -0.352256 -0.152731 0.145048 -0.372667 0.143768 0.419739 0.077986 0.131342 -0.028935 0.142744 0.282297 0.035762 0.040243 -0.117391 -0.073546 -0.290062 0.134156 0.165920 0.325046 0.417759 0.142642 0.164116 -0.310588 0.042489 0.025064 -0.178188 -0.181396 0.040456 0.228673 0.035912 -0.203759 0.200521 -0.182727 0.017647 
经 -0.296847 0.088414 -0.177986 -0.084706 0.380089 0.090535 0.019037 0.013447 -0.376655 0.188227 -0.404988 -0.030181 -0.089490 0.185679 0.014020 0.081056 -0.135294 0.011423 0.193489 -0.354490 -0.074667 0.481358 0.110425 0.178334 0.159927 -0.062166 -0.204755 0.079602 0.149823 0.014894 -0.170628 -0.038190 -0.226694 -0.089131 0.144904 -0.066422 0.019077 0.226459 -0.423932 0.118412 -0.144658 -0.306721 -0.345816 0.027329 0.263263 0.253901 -0.079462 0.202303 -0.118943 -0.155486 
于 -0.008644 0.133690 -0.063293 0.225459 0.225105 0.002214 -0.225632 -0.155737 -0.117342 0.140726 -0.023945 -0.105618 0.091716 -0.090974 -0.093549 0.056016 -0.246134 0.013548 0.126748 -0.282736 -0.151996 0.139098 0.088796 -0.008654 0.089833 -0.166378 0.095532 -0.097942 0.102705 -0.268719 -0.104176 0.181998 -0.050823 0.034428 0.054164 -0.005279 0.152625 0.204123 -0.353310 0.050648 -0.205245 0.068630 -0.269081 0.069942 0.101095 0.156700 -0.141103 0.099090 0.023841 -0.255214 
就 0.237179 0.314177 -0.069491 0.162933 0.032174 0.193916 -0.143101 0.110918 -0.033390 0.252960 0.081102 -0.023061 -0.229983 0.013544 0.139313 -0.244939 0.185133 0.070312 0.092198 -0.331156 -0.083793 0.262231 0.202858 -0.015682 0.095043 0.214268 0.205766 0.092341 0.067597 -0.199757 -0.126375 -0.050044 0.135504 -0.050944 -0.023524 -0.060832 0.012721 0.004000 -0.318887 0.122953 -0.176697 -0.012534 -0.180723 0.034914 -0.038408 0.002425 -0.262381 0.232502 -0.351380 -0.038349 
5 0.234008 -0.395969 0.219150 0.499967 0.398899 -0.121662 -0.419272 0.333784 -0.012321 0.010245 0.327074 -0.143797 0.053846 -0.199579 0.017201 -0.122256 -0.202473 -0.165178 0.088961 -0.357887 0.117123 0.100137 0.034044 -0.291790 -0.250967 -0.754769 -0.145250 0.089313 0.336222 -0.360988 -0.292438 0.196386 -0.268366 -0.171916 -0.029890 0.391715 0.365530 0.095524 -0.495616 0.460420 -0.161841 -0.126385 -0.141142 -0.064481 -0.102069 0.324596 -0.263018 0.269993 0.057651 0.052051 
子 0.317709 0.337464 -0.340030 0.090737 0.294173 0.044015 -0.120103 0.469493 0.024404 0.086098 0.091020 -0.032070 -0.195417 -0.002415 0.238585 -0.198249 0.503544 0.054848 0.121220 -0.028696 0.115709 0.176675 0.060475 -0.150189 0.008669 -0.081090 0.152226 -0.180772 -0.099654 -0.129396 -0.300782 0.009280 0.211644 0.158483 0.179364 -0.244015 -0.069337 0.188137 -0.683733 0.126733 -0.155043 0.040002 -0.440285 -0.221121 -0.332143 -0.105410 -0.070956 -0.143615 -0.320816 -0.384349 
4 0.164498 -0.452681 0.194985 0.466418 0.502020 -0.044454 -0.205152 0.172886 -0.159521 -0.063630 0.216775 0.021705 0.150720 -0.235955 -0.126540 -0.118825 -0.208909 -0.035046 0.035207 -0.457205 0.039611 0.129039 0.106313 -0.241866 -0.211567 -0.828054 -0.199412 0.017010 0.202131 -0.183554 -0.420349 0.257239 -0.243784 -0.198188 -0.048364 0.387552 0.480400 -0.001080 -0.497819 0.408090 -0.156088 0.054159 -0.083093 -0.071332 0.075609 0.373678 -0.496968 0.188349 0.009231 -0.122825 
车 0.202535 -0.622859 0.185952 -0.200821 0.353857 -0.214513 -0.330073 0.822315 -0.369890 0.208087 0.165361 0.261515 -0.356634 0.095659 -0.062997 -0.090746 -0.187576 0.129865 0.340195 -0.167802 0.005994 0.508820 0.356060 0.578215 0.283382 0.004282 0.615741 0.009325 0.169744 0.015783 -0.247490 0.236080 0.251097 0.269301 0.197793 0.141765 0.318478 0.099038 -0.003446 0.232218 -0.167664 0.061293 -0.563896 -0.140094 0.279487 -0.114619 -0.091318 -0.041224 -0.772609 0.166269 
下 0.154784 -0.211727 -0.046529 0.185956 0.051718 0.195281 -0.255751 0.164097 -0.022014 0.363487 -0.130208 -0.119236 -0.074848 -0.153118 0.011430 -0.184008 0.039857 -0.117504 0.036729 -0.313574 -0.078015 0.018506 0.090863 -0.033385 0.160412 0.057601 -0.013473 0.065303 0.233598 -0.165513 -0.106550 0.092634 0.189030 0.130761 0.175252 0.056805 0.317387 0.100905 -0.375867 0.325287 -0.165399 0.177146 -0.021011 0.041865 -0.162076 0.107926 -0.413869 0.337750 -0.160464 -0.281875 
用 0.026115 0.110716 0.448007 0.200925 0.119881 0.011835 -0.302734 0.054818 -0.024787 0.027596 0.023755 0.035112 -0.080457 -0.231163 -0.021772 0.154606 0.031626 0.124596 0.018052 -0.254691 -0.339743 0.483090 0.124193 0.052971 0.033619 0.221014 0.577291 -0.086628 0.016013 -0.437331 0.017344 -0.119847 0.315636 0.094543 0.012149 0.250226 -0.081404 0.152210 -0.258708 0.384659 0.143314 -0.216913 -0.388899 0.280031 -0.102976 0.275678 0.066268 -0.036577 0.234299 0.184061 
自 0.139657 0.247067 -0.098481 0.348839 0.087419 0.254471 0.032669 0.038942 -0.215678 0.247999 -0.112597 0.002934 -0.182239 0.055623 0.155867 -0.214795 0.086732 -0.068917 -0.120010 -0.122932 -0.007929 0.501913 0.067409 0.087025 -0.000586 -0.156831 0.571571 -0.263659 -0.209023 -0.023118 -0.247434 0.070202 0.124435 0.071549 0.013755 -0.147719 -0.149928 -0.020636 -0.294732 0.232607 -0.260337 0.251551 -0.222212 0.141002 0.071759 0.198405 -0.120092 0.126372 -0.007273 -0.203990 
实 -0.086573 0.402540 0.227423 0.064552 0.362625 0.123468 -0.143855 -0.185136 0.040757 0.033156 -0.198458 -0.347539 0.495275 0.212408 0.171158 -0.208576 -0.133511 -0.126789 0.299449 -0.666832 -0.132326 0.353198 -0.143885 0.117019 -0.011938 -0.015544 0.370871 -0.298869 -0.014848 -0.113675 -0.126054 -0.148284 0.321731 -0.266631 0.316666 0.090903 0.221243 0.102553 -0.113301 -0.055914 -0.062008 0.159530 -0.337176 0.236426 0.140735 0.176867 -0.059309 0.177623 0.053192 0.080941 
动 0.141156 -0.006591 -0.051553 -0.072596 0.159845 0.184227 -0.382108 -0.077616 0.104088 0.011162 -0.206625 0.180177 0.238121 0.367816 -0.055584 -0.245120 -0.399152 -0.042767 0.245680 -0.251354 -0.133151 0.567758 -0.222993 0.175380 0.237202 0.287437 0.347284 -0.296719 -0.073606 -0.221440 -0.024655 0.092893 -0.028734 0.281720 0.523240 0.335745 -0.091137 -0.003134 -0.340445 0.030708 -0.024698 0.097262 -0.221178 0.183478 0.244496 0.120373 -0.302771 -0.214809 -0.078379 -0.204293 
法 0.025023 0.111612 0.001560 0.056918 0.324818 0.172436 -0.318081 -0.345133 -0.223203 0.365205 -0.069938 -0.514169 -0.281383 0.278368 -0.226427 0.440572 -0.124824 -0.204941 0.252485 -0.387566 0.040054 0.616425 0.090363 0.184509 -0.241486 -0.477296 0.292112 -0.169528 0.049167 -0.014928 0.240624 0.126240 0.790452 0.114792 -0.128502 0.016054 -0.294155 0.274558 -0.171909 -0.093514 -0.015105 -0.077473 -0.378713 0.066811 0.155328 0.421281 -0.120764 0.091368 0.104008 0.046992 
小 0.265196 0.319931 -0.025848 0.189575 0.050815 0.066863 -0.249724 0.341069 0.017426 0.078046 -0.047071 0.032654 -0.154244 0.069646 0.189068 -0.038316 0.270628 0.074586 0.265003 -0.162364 0.045648 -0.024046 -0.112844 0.065696 0.160058 -0.167984 -0.017772 0.095190 -0.079234 0.012739 -0.366265 0.258019 0.119706 0.117626 0.195647 -0.069795 0.164280 0.044510 -0.393964 0.351697 -0.094034 -0.219912 -0.198767 -0.083907 -0.106699 -0.180780 -0.336070 0.157420 -0.160093 -0.390044 
说 0.078799 0.500797 0.074821 0.187189 -0.036971 0.001787 -0.163261 0.291987 0.019459 0.241691 -0.106992 -0.133496 -0.284558 0.008961 0.301478 -0.252640 0.002510 -0.083854 -0.117791 -0.052275 -0.014071 0.189355 0.345033 0.011566 0.006983 -0.090021 0.103159 -0.048362 -0.114678 -0.081580 -0.196687 0.172924 0.287758 -0.161300 -0.040377 -0.255970 -0.301750 0.120593 -0.003430 0.061368 -0.354963 -0.214324 -0.134453 0.202620 0.030433 -0.107665 -0.317195 0.336890 -0.379689 -0.296786 
者 -0.016676 -0.372912 0.577894 0.196000 0.098835 0.185926 0.192823 0.160273 -0.279268 0.195896 -0.255204 -0.216174 -0.013534 0.129304 -0.268594 0.053738 0.015059 -0.066898 0.025246 0.231855 -0.394110 0.429513 0.261735 0.112716 -0.024857 -0.070244 0.167962 -0.138732 -0.076257 -0.216806 -0.551104 0.384471 0.318499 -0.054005 -0.094759 -0.155298 -0.096430 0.156612 -0.492980 0.048228 -0.223708 -0.033641 -0.259438 0.059356 -0.085087 0.011563 -0.486190 0.289340 0.121186 -0.192157 
分 0.044166 0.070175 0.023830 -0.021046 0.225288 0.282839 -0.242355 0.036056 0.040120 0.185459 0.158853 -0.113428 0.146816 -0.378989 -0.093577 0.136894 -0.182223 -0.152250 0.105691 -0.402197 -0.159337 -0.103235 -0.026233 0.157787 -0.177412 -0.376519 0.089055 -0.109527 0.241868 -0.582880 -0.136155 0.033806 -0.009032 -0.067576 0.082950 0.302731 0.105363 0.065019 -0.251484 0.314684 -0.035342 -0.064914 -0.309057 -0.047991 -0.272160 0.096332 -0.349880 0.325215 -0.032516 -0.091548 
们 0.335281 0.476803 -0.061780 0.088054 -0.037540 0.135916 0.053820 0.037150 0.049316 0.371151 0.084503 0.077841 -0.204805 0.428974 0.150986 -0.365724 -0.096884 0.157471 0.135010 -0.397435 0.122259 0.289841 0.248002 -0.038958 -0.010849 0.225226 0.336720 -0.019133 -0.085394 -0.154105 -0.207655 -0.010128 0.141603 -0.158040 0.005872 -0.135252 -0.412883 -0.037300 -0.239347 0.072273 -0.274910 0.097139 -0.147715 0.024321 -0.068946 -0.036904 -0.273168 0.339333 -0.249735 -0.220657 
高 0.149889 0.289243 0.206743 0.098511 0.112654 -0.023287 -0.356762 0.160302 -0.085775 0.056680 0.150817 0.228846 -0.050560 -0.280180 -0.198696 0.002245 -0.474556 0.006697 0.022381 -0.450221 -0.302750 0.296573 -0.133818 0.278087 0.117189 -0.396750 0.387538 0.194011 0.354173 -0.346257 -0.209709 -0.114746 -0.225983 0.062605 0.012414 0.122595 0.271317 0.494148 -0.062514 -0.070643 -0.058509 -0.141728 -0.057426 0.000820 -0.096733 0.119707 -0.096486 0.225896 0.017801 -0.185007 
等 0.153557 0.175441 0.327847 0.000519 0.210114 -0.013745 -0.242437 -0.020177 0.086235 0.026397 0.063710 0.051775 0.156080 -0.278825 -0.015516 0.295804 -0.142601 0.063730 0.296079 0.013724 -0.164066 0.226845 -0.020127 0.148219 0.180481 -0.034456 0.200716 -0.012652 -0.080152 -0.313299 -0.102512 -0.056308 0.217684 0.125798 -0.003220 0.218646 0.044370 0.196721 -0.401184 -0.118277 -0.031139 -0.328273 -0.479324 0.186114 0.077798 0.052650 -0.139355 0.027097 0.170422 -0.166355 
将 0.021973 -0.157329 -0.007130 0.000191 0.336139 0.261707 -0.381952 0.050477 -0.185095 0.033647 -0.105005 -0.079709 0.079988 -0.018540 -0.024486 -0.030250 -0.157256 -0.020483 0.085914 -0.224554 -0.120972 0.237449 0.125694 -0.081100 0.010314 -0.130163 0.324440 0.015426 0.079929 0.044485 -0.169282 0.038466 0.122121 0.152304 0.092026 0.090552 0.046862 0.275875 -0.371414 0.250092 0.082890 0.023989 -0.119918 0.127621 0.329832 0.181456 -0.256130 0.175690 -0.055257 -0.179210 
学 0.169271 0.677588 -0.272269 0.425533 0.022264 -0.169545 -0.101843 -0.032506 -0.042412 -0.239020 -0.406784 0.127429 -0.204639 0.063475 -0.269868 0.150844 -0.211650 -0.204504 -0.143636 -0.501729 -0.182932 0.392659 -0.561225 0.009193 0.004712 0.128134 0.079841 -0.028540 -0.037495 -0.437741 -0.368605 0.547162 0.082898 -0.210031 -0.086956 0.079554 0.005989 0.271637 -0.421126 -0.200600 -0.532775 -0.372885 -0.409620 -0.142945 -0.012276 -0.059308 -0.079434 0.433373 -0.109349 -0.017536 
天 0.176648 -0.126977 0.055738 0.103680 -0.106309 0.041726 -0.267294 0.048724 0.163504 0.014920 0.208441 0.149318 -0.515078 -0.157075 0.096755 -0.165966 -0.063951 0.023085 0.009237 -0.240304 -0.335580 -0.128616 0.062359 -0.000647 0.143306 0.051743 -0.218160 0.012453 0.093602 -0.171890 -0.144368 0.139627 0.272817 0.288019 -0.057106 -0.082270 0.278707 0.056044 -0.303136 0.228216 -0.284189 0.028826 -0.089850 0.241828 0.221806 0.273584 -0.601136 0.618942 -0.356598 -0.396357 
可 0.185425 0.252953 0.211392 0.062121 0.006347 0.238734 -0.125365 0.017954 -0.167589 0.139641 0.226892 -0.014427 -0.085224 -0.020867 -0.012632 -0.019461 -0.081458 0.303930 0.172992 -0.351792 -0.144360 0.069408 0.323471 0.032241 -0.109749 0.072674 0.363092 -0.012327 0.109417 -0.455184 0.027811 -0.134803 0.026311 -0.031837 0.120714 -0.070479 -0.014276 0.087404 -0.350528 0.018240 -0.206261 0.015928 -0.261224 0.142922 -0.126879 0.088714 -0.097766 0.102042 0.007027 -0.065285 
区 -0.022541 0.318869 -0.022774 0.177019 0.712011 -0.289657 -0.038559 0.071891 0.019612 0.492763 -0.173716 0.370725 0.205567 -0.125837 -0.281313 0.129384 -0.360486 -0.153710 0.193751 -0.047477 -0.013854 -0.215137 -0.169717 0.258391 0.454676 -0.095723 -0.051396 -0.266019 -0.010285 -0.053633 0.033439 -0.036972 0.373431 0.279078 -0.214286 0.476777 0.349423 0.311913 -0.189942 0.278284 -0.271573 -0.315687 -0.122884 0.064006 0.203563 0.317473 -0.248489 0.429158 -0.069761 -0.326857 
政 0.410085 0.291056 0.245733 -0.355388 0.707006 0.209061 -0.288024 -0.406206 -0.035078 0.716073 -0.195045 -0.537531 0.410925 -0.167252 0.070548 0.133531 -0.327004 -0.378440 -0.156292 -0.396820 -0.333220 0.274555 -0.185353 -0.045854 0.081072 -0.154621 0.392495 -0.128699 0.049512 -0.079513 -0.011191 0.230694 0.297856 0.282862 -0.200448 0.422604 -0.184927 0.466305 -0.003852 0.026938 0.283428 -0.166774 -0.174610 0.280458 -0.026814 0.512674 0.198659 0.281796 -0.505590 -0.106968 
关 0.199249 -0.032887 0.115516 -0.296481 0.437876 0.060420 -0.139803 -0.513382 0.172789 0.335998 -0.113944 -0.206129 0.260768 0.074565 -0.180001 0.285930 -0.203911 -0.154017 0.133051 -0.429796 0.073143 0.226576 0.205648 0.142526 0.158791 -0.044825 0.425251 -0.032489 -0.156358 -0.217391 -0.346001 0.062384 0.259122 -0.133949 0.242037 0.041251 -0.318732 0.421799 -0.144862 0.087680 -0.079065 -0.010912 -0.248233 0.343347 0.009228 -0.000557 -0.061445 0.293601 0.037901 -0.221102 
事 -0.132522 0.143838 0.009774 -0.205539 0.326092 -0.124489 -0.258826 -0.272427 -0.236959 0.312178 -0.205643 -0.166719 -0.040757 0.149386 -0.032255 0.040992 -0.150104 -0.219423 0.429978 -0.292555 0.249355 0.264005 0.194740 0.212630 -0.163706 -0.028885 -0.058934 0.178350 -0.157280 -0.033443 -0.136011 0.321999 0.219125 -0.055752 0.117603 -0.125493 -0.394773 -0.094949 -0.235412 0.019035 -0.219823 0.221717 -0.602888 0.156941 -0.006748 0.111797 -0.405542 0.288101 -0.100910 -0.282610 
还 0.202865 0.284692 -0.053493 0.132668 0.100766 0.215009 -0.182364 0.213407 -0.109181 0.182614 0.117415 -0.114885 -0.221502 -0.050269 0.131625 -0.104106 0.065529 0.177827 0.219637 -0.300456 -0.120957 0.011550 0.290744 -0.011907 0.026766 0.068804 0.176253 0.079880 -0.008636 -0.259172 -0.092497 -0.064425 0.048248 -0.007665 -0.036337 -0.121602 -0.287862 0.156500 -0.411504 0.140922 -0.110905 -0.034626 -0.151646 0.042025 0.033059 0.046036 -0.077505 0.166582 -0.158579 -0.076280 
长 0.200016 0.441947 0.094448 -0.070095 0.245899 -0.155875 -0.392224 0.229322 -0.325197 0.128853 -0.169618 -0.035974 0.213779 -0.412017 -0.286200 -0.101418 -0.187717 0.121154 -0.265040 -0.385609 0.104492 0.088716 -0.205478 0.107374 0.060984 -0.494814 -0.038948 -0.143830 0.317047 0.146929 -0.300122 0.477303 -0.053840 -0.089744 0.307530 0.228107 -0.178077 0.084032 -0.114930 0.140354 -0.383318 -0.612111 -0.031559 -0.035700 -0.034410 0.152982 -0.207132 0.287212 -0.069802 -0.255426 
员 -0.066686 0.103553 0.118952 -0.274919 0.136777 0.164137 -0.079215 0.145735 0.183459 0.396638 -0.287365 0.041764 0.178276 -0.114137 -0.112949 0.432635 -0.272076 -0.010087 0.126385 -0.351059 -0.074738 0.380656 -0.043637 0.238589 -0.424290 -0.032753 0.318260 -0.245539 0.030466 0.022132 -0.452582 0.506203 0.119753 -0.058827 -0.206205 0.419889 -0.504289 0.090296 -0.213155 0.068617 0.036605 -0.082592 -0.519752 0.235231 -0.105803 0.255137 -0.261830 0.226436 -0.348224 -0.221779 
机 -0.108294 -0.181873 -0.197893 -0.050942 0.267982 0.261425 -0.500622 0.229544 0.085148 0.277843 0.211393 0.074494 0.092455 -0.145419 0.069301 0.535671 -0.193867 -0.119483 0.233445 -0.289900 0.076439 0.695826 0.097215 -0.048733 -0.086753 0.193284 0.532775 0.027708 0.178178 -0.087516 -0.009103 -0.091210 0.140765 0.052353 0.316591 0.439482 -0.129605 0.213423 -0.310689 0.155607 -0.226980 -0.019556 -0.384793 0.528703 0.119180 -0.245986 -0.143376 -0.032914 -0.097621 0.144349 
理 0.103206 0.366389 0.446345 0.104862 0.287815 -0.174190 -0.281677 -0.344175 -0.129075 0.205487 -0.433348 -0.336243 -0.159317 -0.214458 0.018171 0.402434 -0.068291 -0.038382 0.171001 -0.469238 -0.060168 0.462161 0.183685 0.252438 0.025560 -0.238689 0.221708 -0.106231 0.069508 -0.095678 0.025283 0.021247 0.441743 -0.021071 0.050458 0.332743 -0.351752 0.143114 -0.252295 -0.148073 -0.143427 -0.181032 -0.280677 0.124929 0.267263 -0.067397 -0.086780 0.184083 0.005863 0.159865 
建 -0.073157 0.440565 0.026389 0.423848 0.406268 -0.501948 0.006539 -0.076452 0.054136 -0.130929 -0.441465 0.082269 0.515171 0.008313 -0.057898 0.183136 -0.271605 -0.139300 -0.181211 -0.568154 0.339044 0.396780 0.238411 0.005965 0.570251 -0.382311 0.246042 -0.214733 -0.049120 -0.062087 -0.151323 -0.207308 0.340874 0.299735 -0.111319 0.603851 -0.071338 0.409094 -0.265187 0.110115 -0.053702 -0.229936 -0.137607 0.247679 0.227266 0.356442 0.042689 0.251824 -0.206968 0.197472 
定 0.025955 0.353024 0.187409 -0.040383 0.204655 0.129834 -0.214857 -0.197325 -0.130598 0.073574 -0.034047 -0.513900 -0.107810 0.226366 -0.374804 0.131871 -0.200929 -0.063832 0.322658 -0.638947 -0.295892 0.420806 0.176208 0.068834 -0.027579 -0.394247 0.063102 0.094454 -0.088724 0.223956 0.338782 -0.153053 0.513211 -0.216167 0.256851 -0.013412 0.072407 0.364306 -0.292397 0.265740 0.127023 0.059626 -0.469952 0.120170 0.267052 0.099885 0.069536 0.302920 -0.093207 0.045362 
体 -0.271313 0.164500 0.163458 0.095600 0.182315 0.077869 -0.207161 -0.188997 -0.095194 0.040680 -0.279021 -0.037663 0.368310 0.042188 -0.035901 0.160046 0.114008 0.044482 0.002456 -0.273382 -0.501731 0.123655 0.207459 0.248841 0.107796 0.053171 -0.070052 -0.154214 -0.173200 -0.277023 -0.296410 -0.085273 -0.114465 0.191439 0.437303 0.199556 -0.113144 -0.156484 -0.865202 -0.185423 -0.068264 0.052955 -0.347233 0.262896 -0.072192 -0.074299 -0.055991 0.292818 0.162300 -0.108483 
面 0.151000 0.033064 -0.070268 -0.015156 0.199639 0.178809 -0.195032 0.251558 -0.116676 0.160060 -0.199793 0.052862 0.368494 0.183909 0.086360 0.081844 0.176196 0.182144 -0.037580 -0.573459 -0.039232 0.089487 0.176036 0.288828 0.406677 0.015128 0.030344 0.021681 -0.238491 -0.188762 -0.100849 -0.181719 0.078222 0.116912 0.013720 0.145119 0.118470 0.230672 -0.392482 0.194225 0.072671 -0.006313 -0.116339 0.170352 -0.074145 0.021429 -0.019607 0.363593 0.123027 -0.012323 
都 0.179702 0.224777 0.030577 0.175576 -0.014658 0.194067 -0.089110 0.064638 0.045897 0.353395 0.145107 0.115834 -0.156125 0.094814 0.161526 -0.222045 0.122723 0.083941 0.074336 -0.251743 -0.230565 0.092853 0.271846 0.188351 0.151430 0.187096 0.146080 -0.087369 -0.028777 -0.114281 -0.113790 0.046033 0.077359 -0.134106 -0.144814 -0.098532 -0.137712 0.055537 -0.347804 0.180686 -0.228114 0.028207 -0.350971 0.121934 0.034362 -0.046296 -0.235284 0.112203 -0.230870 -0.200859 
主 0.100481 0.411578 0.316287 -0.074275 0.264469 0.113592 -0.247202 0.111658 0.040518 0.214113 0.042192 -0.174828 0.429653 0.013406 -0.047241 0.140710 -0.320229 -0.244855 -0.194063 -0.121826 -0.210080 0.397230 -0.071304 0.376050 0.166414 -0.047699 0.108722 -0.032504 -0.183970 0.299665 -0.169935 0.319103 0.001288 0.186640 -0.078200 0.013312 -0.332288 -0.075779 -0.355697 0.147831 -0.228841 -0.391407 -0.163465 0.310542 -0.129614 0.138860 -0.107756 0.203679 -0.287833 -0.217267 
6 0.145905 -0.416977 0.235553 0.442045 0.433109 -0.130041 -0.277353 0.243315 -0.101711 -0.008352 0.271612 -0.102177 0.093274 -0.229869 0.094530 -0.213062 -0.185250 -0.137341 0.151114 -0.408146 -0.001071 0.125038 0.034049 -0.207458 -0.160632 -0.710866 -0.172350 0.085589 0.311163 -0.270059 -0.387767 0.261954 -0.152947 -0.193050 -0.064885 0.379379 0.538486 0.004467 -0.460218 0.429346 -0.320946 -0.148946 -0.069006 0.000421 -0.056535 0.348793 -0.435236 0.123308 0.089289 0.032555 
报 -0.090715 -0.255046 0.240741 0.059144 0.855767 0.301069 -0.227330 -0.083782 0.185522 0.216976 -0.394345 -0.120142 -0.103412 0.261253 -0.313507 0.265499 0.109922 -0.350774 -0.225295 0.092433 -0.382558 0.217456 0.567405 -0.028659 -0.476730 -0.194769 -0.068880 0.029459 -0.219112 -0.457462 -0.402358 0.478627 0.201672 -0.200383 0.054368 0.015475 0.091873 -0.031924 -0.438858 -0.330598 0.067758 -0.194146 -0.023624 0.253448 0.195066 0.053929 -0.436887 0.646128 -0.196895 -0.218069 
同 0.176250 0.286083 0.222093 0.063406 0.148144 0.157888 -0.014259 -0.008572 0.010491 0.217742 -0.083053 -0.113737 0.122068 0.094467 -0.040473 -0.004222 -0.233300 0.107228 0.036636 -0.367449 -0.021350 0.257212 0.003295 0.068898 0.084498 -0.351233 0.236440 0.060618 0.011306 -0.075306 -0.070313 0.333468 -0.077696 -0.233831 0.029603 0.084044 -0.049863 0.047959 -0.464326 0.349306 -0.252047 -0.047191 -0.098902 -0.000628 -0.112724 0.164591 -0.027055 0.003577 -0.114910 -0.223729 
安 0.008489 -0.093222 0.038165 -0.309672 0.542574 -0.030779 -0.447024 -0.474997 -0.207983 0.071298 0.184305 -0.213567 0.017378 -0.161102 -0.339478 -0.080214 -0.285043 0.082057 -0.158574 0.085962 0.268044 -0.126757 -0.002035 0.318643 0.333574 -0.187176 0.363654 -0.329573 -0.148935 0.143098 -0.586346 -0.168765 0.370288 -0.060105 0.058244 0.403198 -0.165923 0.339016 -0.349205 0.091905 -0.310845 -0.068734 -0.350539 0.408343 0.246338 0.134972 -0.468020 0.440447 -0.037889 0.069399 
其 -0.117217 0.081651 0.153609 0.016483 0.194631 0.117477 -0.156189 0.124146 -0.032552 0.164941 0.134034 -0.152554 0.034171 0.124240 -0.047090 0.107960 -0.099112 -0.008426 0.231729 -0.139962 0.076677 0.260731 -0.076793 0.210035 -0.010550 -0.208655 0.124182 -0.048136 -0.051869 -0.331866 -0.079816 0.169012 0.037870 -0.062935 0.037552 -0.117318 -0.041735 0.135883 -0.454937 0.201303 -0.259389 -0.015501 -0.472235 0.035809 -0.072580 0.236818 0.035655 -0.081978 0.129392 -0.271463 
9 0.083646 -0.454067 0.213400 0.629433 0.436623 -0.163831 -0.264713 0.025057 -0.004372 -0.013097 0.135492 -0.094124 0.144235 -0.280507 0.112334 -0.263845 -0.275864 -0.228652 0.074185 -0.261097 -0.017422 0.262460 0.027573 -0.179951 -0.257688 -0.694332 -0.235272 -0.086688 0.237966 -0.141166 -0.537551 0.434457 -0.335593 -0.247029 -0.010196 0.198517 0.547655 0.002005 -0.389411 0.317941 -0.438964 -0.136130 -0.196894 -0.042817 0.098589 0.456476 -0.373195 0.113674 -0.102349 -0.163970 
力 -0.195829 0.363819 -0.228242 0.322244 0.105589 0.338058 -0.473608 -0.041580 -0.180531 0.281961 -0.089346 -0.034258 0.309637 0.207379 0.103336 -0.055709 -0.426663 0.035637 0.060264 -0.090891 -0.243842 0.616197 0.001047 0.110263 0.219904 -0.150509 0.523650 -0.115921 0.337809 -0.222668 -0.143031 -0.449539 0.007647 0.211133 0.229520 0.611277 -0.191072 -0.194553 -0.034684 0.013747 0.216606 0.185332 -0.208380 0.409023 -0.142794 0.071056 -0.063853 0.230220 0.025960 -0.280539 
表 0.038117 0.160601 0.337069 -0.234377 -0.116616 0.161671 -0.053728 0.072479 -0.178789 0.170361 -0.517536 0.005342 0.172099 0.088185 0.045171 0.006333 -0.341069 -0.445235 -0.231966 -0.252131 -0.196170 0.082378 0.231482 0.101437 0.043105 -0.433106 0.304260 -0.369088 -0.144417 -0.199127 -0.260404 0.252659 -0.038495 -0.107839 -0.070662 -0.294685 -0.431044 0.050720 -0.192815 0.095925 -0.147890 -0.136704 -0.333189 0.094206 0.104831 0.140217 -0.201472 0.365799 -0.032152 -0.390060 
加 0.358517 0.134808 0.187076 0.131621 0.229039 0.245181 -0.366888 -0.250184 -0.170359 0.030582 -0.125637 0.245259 0.313184 0.180474 -0.071102 -0.122400 -0.186406 0.048790 0.118162 -0.141263 -0.062141 0.354521 0.028955 0.323837 0.041485 -0.330824 0.384572 0.043604 0.134574 -0.017309 -0.207963 -0.095826 -0.066053 -0.132233 0.448014 0.539005 -0.017389 0.133485 -0.368705 0.210051 0.232733 -0.133913 -0.136381 0.324644 0.053255 0.100931 0.010717 0.115150 0.066940 -0.186424 
网 -0.148176 -0.309049 0.189650 -0.059285 0.645924 0.025128 0.155336 -0.119163 0.090712 0.029617 0.143015 0.399990 -0.177916 0.259671 0.081765 -0.105891 -0.378195 -0.254265 0.079498 -0.556507 -0.218687 0.368728 0.623298 -0.220800 0.000522 -0.221037 0.319674 -0.063531 -0.117221 -0.467758 -0.664928 0.087745 0.360360 0.257292 0.065026 -0.245502 -0.239111 -0.133183 -0.296566 0.152157 -0.225255 -0.486259 0.141283 0.227381 -0.106137 0.050434 -0.472747 -0.105073 0.403352 -0.078715 
名 -0.074663 -0.006145 -0.226910 0.013640 0.401040 -0.085600 0.036803 0.343105 0.111004 0.016228 0.007796 0.080868 -0.117764 0.088110 -0.019083 0.232963 -0.049281 -0.162488 0.145157 -0.031406 0.026415 0.133122 -0.101291 0.129931 -0.267251 -0.299140 0.422453 -0.024944 -0.187743 -0.261494 -0.437754 0.230301 0.057122 -0.314108 -0.359129 -0.084530 0.129983 -0.154910 -0.445181 0.073363 -0.152294 -0.095530 -0.786039 0.011082 -0.116291 0.293779 -0.362691 -0.002442 -0.044657 -0.297791 
与 -0.002937 0.327615 -0.063929 0.022702 0.289457 0.205589 -0.163088 0.027342 -0.037034 0.009793 0.021566 0.160815 0.086923 0.037919 -0.026008 0.139399 -0.289371 -0.176434 0.081736 -0.080697 -0.093323 0.152237 -0.001284 0.015734 0.264565 -0.353634 0.207029 -0.172449 -0.102321 -0.081117 -0.277178 0.123035 0.052135 -0.075270 0.163901 -0.025202 -0.285685 0.003721 -0.501874 0.072208 -0.207675 -0.115999 -0.260284 0.211095 0.099266 0.007698 0.003043 -0.004792 -0.072730 -0.398547 
当 -0.032243 0.051051 -0.006378 0.050835 0.089212 0.243162 -0.170591 0.020417 -0.081517 0.220444 -0.083813 -0.109235 -0.111338 -0.049879 -0.025683 0.024422 -0.115917 -0.052052 0.060905 -0.114115 -0.099233 0.134984 0.264763 0.204850 -0.062353 -0.048431 0.047760 0.108879 -0.088846 -0.190971 -0.202232 0.253624 0.255124 -0.083996 0.077655 -0.092872 -0.186207 0.117968 -0.356633 0.185898 -0.113599 0.130447 -0.230470 0.144221 0.033177 0.021407 -0.276414 0.316626 -0.315921 -0.289317 
场 -0.094717 -0.009890 0.038254 -0.041559 0.124192 0.289551 -0.107466 0.404283 0.127524 0.310557 -0.312548 0.335167 0.143268 0.139477 -0.281147 -0.121751 -0.346562 -0.153226 0.297639 0.003775 -0.135318 0.229861 0.103574 0.196585 0.043707 0.003548 0.198988 0.175731 0.132043 0.059299 -0.156203 -0.187042 0.021767 0.213195 0.100441 0.028252 -0.035369 0.014916 -0.438141 0.278340 -0.086930 0.014334 -0.215559 0.098887 0.531464 0.197354 -0.368246 0.135796 -0.127153 -0.152399 
次 0.285760 -0.267872 -0.065253 -0.151196 -0.117052 0.382704 -0.139611 -0.085220 -0.069668 -0.137357 0.133818 -0.026993 0.163403 0.307669 0.062752 -0.055778 -0.066926 -0.170026 0.234530 -0.469360 -0.166121 0.120912 0.039621 -0.116252 -0.009486 -0.151674 0.024559 -0.187614 0.072136 -0.227575 -0.350199 0.200593 -0.036053 0.169274 -0.283445 0.047664 -0.018325 0.130009 -0.307280 0.414864 -0.131575 -0.217991 -0.459253 0.029082 0.225645 0.057215 -0.388235 0.378051 -0.329582 -0.184178 
重 0.038951 -0.117177 0.136570 0.092626 0.152760 0.126359 -0.312032 -0.280360 0.066350 0.171182 0.028463 -0.223252 0.239234 0.117649 0.061901 -0.140131 -0.056772 0.055671 0.225694 -0.097723 -0.315850 0.556827 -0.207366 0.300539 0.554653 -0.021052 -0.048854 -0.062169 -0.110677 -0.124289 -0.052261 -0.220981 0.019764 -0.161199 0.149700 0.231691 -0.135785 0.281864 -0.103551 0.129411 -0.278902 -0.004789 -0.469940 0.200036 -0.033418 0.347752 0.011469 0.245327 -0.140848 -0.305884 
8 0.210369 -0.475694 0.156404 0.537164 0.460634 -0.131468 -0.296344 0.212595 -0.021010 0.015934 0.344905 -0.135341 0.142771 -0.274628 0.016926 -0.190584 -0.173121 -0.148046 0.027699 -0.290314 0.082699 0.185615 0.044367 -0.220864 -0.216517 -0.758657 -0.276171 0.011106 0.278527 -0.260069 -0.443940 0.374390 -0.112619 -0.217380 -0.047004 0.334730 0.479844 0.071333 -0.562335 0.397264 -0.242006 -0.024366 -0.096810 -0.030901 0.068370 0.430584 -0.270616 0.158173 0.030266 -0.058407 
得 0.140087 0.478810 0.045861 0.290621 0.118039 0.357445 -0.170269 0.207588 0.042087 0.126437 0.068271 -0.281615 -0.163792 -0.103390 -0.006900 -0.315884 -0.079754 -0.008963 0.301786 -0.413348 -0.196415 0.207144 0.233187 0.243868 -0.067472 0.222968 0.313110 -0.107663 0.025147 -0.263830 -0.357482 -0.244281 -0.170716 -0.155205 -0.147055 -0.246358 -0.149658 -0.126747 -0.141965 0.027761 -0.184833 0.082630 -0.035171 0.046135 0.102956 0.181326 -0.195982 0.253253 -0.086705 -0.016139 
通 -0.146336 -0.023632 0.294786 -0.332208 0.580636 -0.155736 -0.316002 -0.086053 -0.159127 -0.047962 0.029317 0.227573 -0.261150 0.185141 -0.126772 0.244300 -0.024237 -0.045547 0.172191 -0.464577 -0.310586 0.286032 0.471626 0.253019 -0.022376 -0.186633 0.337138 -0.396111 -0.055031 -0.385686 -0.175453 0.210935 0.237149 0.112262 0.180350 0.316319 -0.021370 0.280535 -0.152347 -0.201672 -0.109762 -0.256155 0.001870 -0.039748 0.293532 0.075667 -0.318891 0.094310 -0.259126 -0.079694 
而 0.007321 0.223782 -0.027531 0.050655 -0.001342 0.229731 -0.276523 0.160004 -0.281897 0.174068 0.114796 -0.039061 -0.053616 0.064123 -0.048220 -0.104742 -0.027340 0.172824 0.086814 -0.221532 -0.184832 0.173751 0.184731 0.141358 0.206640 -0.133681 0.218337 0.095040 0.210527 -0.312651 -0.090135 -0.055671 -0.168374 0.005997 0.102836 -0.216657 -0.036869 0.043751 -0.228249 0.075793 -0.161402 0.009533 -0.359347 0.115337 -0.070069 0.280593 -0.001083 -0.050547 0.027518 -0.299016 
记 -0.073375 -0.224065 0.721304 0.135787 0.267595 0.285522 0.295866 0.270793 -0.171196 0.250391 -0.309709 -0.310684 0.090745 0.076895 -0.025748 -0.062275 0.283424 -0.175612 -0.201154 0.032841 -0.189274 0.399886 0.262897 0.140390 0.198672 -0.033828 0.106594 -0.436101 -0.056241 0.031797 -0.556805 0.848282 0.389598 -0.080976 -0.050472 -0.254816 0.057131 0.083830 -0.275154 -0.067432 -0.198199 -0.281394 -0.146955 -0.031692 0.143534 -0.052131 -0.726727 0.770360 -0.082867 -0.174177 
被 -0.266332 -0.320532 -0.097193 0.008242 0.427568 0.220136 -0.396984 0.281075 -0.151421 0.245370 -0.172814 -0.225390 -0.272428 0.129914 0.187938 0.077237 0.140789 0.017238 0.458338 -0.131451 0.149044 0.195859 -0.007563 0.142318 -0.082079 0.052805 -0.003478 0.127053 0.113750 -0.101665 -0.313126 -0.023281 0.330991 0.147421 -0.052126 -0.411305 -0.130648 0.137822 -0.357655 0.115592 -0.046365 0.177640 -0.588930 -0.054193 -0.106000 0.213608 -0.256434 0.026400 0.082924 -0.377670 
最 0.196738 0.167826 -0.185407 0.277522 -0.060462 0.312201 -0.235776 -0.031219 0.059865 0.085276 0.169336 -0.012790 -0.120848 0.033419 -0.095093 -0.134412 -0.339223 -0.065191 0.115014 -0.241011 -0.385050 0.181477 0.028124 -0.005924 0.045052 -0.173772 0.175762 0.097242 0.100113 -0.231481 -0.217868 -0.161453 -0.131889 -0.023691 -0.033015 -0.146764 0.287624 0.028897 -0.277617 0.071322 -0.187324 0.038472 -0.166386 0.291074 0.100321 0.037722 -0.218910 0.300714 0.080868 -0.310476 
目 0.051865 -0.157145 -0.043455 0.421243 0.274187 0.109552 -0.098138 0.031237 -0.056197 -0.222553 -0.168071 -0.001362 0.121133 0.146661 -0.293788 -0.024316 -0.290871 0.097944 0.181544 -0.587041 0.049018 0.263572 0.088236 -0.000811 0.026266 -0.236838 0.181667 0.051956 -0.398554 0.091559 -0.370630 -0.315219 -0.274290 -0.003164 -0.061359 0.090481 -0.116604 0.333012 -0.225214 0.283404 0.179117 -0.111552 -0.417220 0.308108 0.563649 0.050541 -0.149526 0.174977 -0.041837 -0.272200 
好 0.264937 0.649411 -0.045881 0.156693 -0.040669 0.206127 -0.091697 -0.154841 0.083571 0.157007 -0.026729 0.055698 -0.252016 -0.102015 0.087119 -0.414301 -0.018202 0.128333 0.105783 -0.381002 -0.147601 0.340739 0.255213 0.223401 0.177661 0.200305 0.153590 -0.108336 -0.159225 0.019514 -0.150147 -0.254072 0.211275 -0.088762 0.119384 0.009452 -0.077761 -0.112054 -0.169887 0.091554 0.004614 0.000854 0.019660 0.272289 -0.076266 0.135549 -0.382773 0.281078 -0.262169 -0.166152 
道 -0.132179 0.064675 0.024419 0.324951 0.822382 -0.129259 -0.390673 0.080350 -0.064800 0.168637 0.097362 0.162591 -0.115460 0.395668 -0.379824 0.120642 0.277564 -0.003383 -0.150351 -0.116304 -0.416614 -0.020014 0.701002 0.276072 -0.100074 0.007857 -0.087558 -0.089514 -0.288463 -0.315855 -0.410158 0.048286 0.321905 -0.004376 0.217143 -0.110062 0.097336 -0.142699 -0.264109 -0.499614 -0.293131 0.009125 0.005784 -0.074440 0.114304 0.126045 -0.080438 0.380402 -0.280108 -0.269827 
本 -0.091708 0.162433 0.174166 0.124480 0.306418 0.119378 -0.206576 -0.122322 -0.277405 0.295627 0.092048 -0.101443 0.065488 0.267644 0.073933 0.037792 -0.070631 -0.109044 -0.197837 -0.200390 -0.337529 0.132545 0.036799 -0.216780 0.042809 -0.125684 0.041882 0.131349 -0.137460 -0.158580 -0.075432 0.074701 0.194330 -0.284551 -0.119988 0.090140 -0.025828 0.151170 -0.343385 0.122748 -0.164093 -0.100080 -0.246247 0.500789 0.230895 0.223327 -0.104245 0.202445 -0.057978 -0.048638 
化 0.064715 0.333282 0.191244 0.249322 0.058684 -0.355417 -0.144537 -0.117316 -0.348069 0.026504 -0.476166 0.227184 0.356434 0.181305 0.210671 0.301169 -0.266840 -0.042913 -0.094618 -0.336818 -0.230320 0.332166 -0.138772 0.296105 0.465473 -0.152994 0.056313 -0.076308 0.112908 -0.125300 0.044393 -0.333482 0.056154 0.120096 0.371673 0.370486 0.332340 -0.135957 -0.459230 -0.439926 0.062080 -0.090833 -0.471091 0.364127 -0.053313 0.242180 -0.143979 0.233066 0.056295 0.045083 
务 0.082857 0.337480 0.302963 -0.333281 0.312618 -0.230061 -0.200097 -0.063584 -0.048098 0.296661 -0.240855 -0.296897 0.039854 -0.159566 0.033633 0.482015 -0.517660 0.187202 -0.080054 -0.397222 -0.037738 0.627840 -0.231524 0.229705 -0.172323 -0.027193 0.497418 0.038623 -0.109422 0.080201 -0.475912 0.215968 0.230155 0.043802 -0.093593 0.689123 -0.123683 -0.123608 -0.350596 0.271603 -0.227787 -0.149883 0.097197 0.393481 -0.160719 0.205894 -0.258424 0.219169 -0.082490 0.159690 
元 0.428616 -0.063013 0.599494 0.353784 0.276696 -0.205932 -0.503344 0.556459 0.073029 0.151071 0.503824 -0.373821 0.022310 -0.401723 0.186819 0.010650 -0.225363 0.084424 0.147341 -0.221376 0.193235 0.474832 0.175560 -0.219747 -0.290746 -0.750307 -0.457113 0.347702 0.352065 -0.497358 -0.440854 0.243047 -0.335963 -0.380774 -0.385534 0.388277 0.145363 0.126605 -0.533314 0.467368 0.182423 -0.241047 0.058398 -0.326305 0.328538 0.494629 -0.258763 0.027955 0.117728 0.177426 
心 0.308560 0.425139 0.021604 0.121542 -0.048986 0.039127 -0.251628 0.052699 -0.071274 0.145790 -0.116323 -0.054080 0.063648 0.065961 0.121207 -0.005690 -0.137985 0.250671 0.169226 -0.052884 -0.170096 0.244577 0.044207 0.046154 0.154174 0.101183 0.116193 -0.271699 0.117187 -0.147303 -0.398997 -0.222321 0.074329 -0.229892 0.346132 0.058151 -0.474784 0.130279 -0.211817 -0.138353 -0.230857 0.062799 -0.008009 0.096465 -0.238851 0.079212 -0.373931 0.232024 0.039351 -0.134455 
7 0.136078 -0.439255 0.206695 0.534323 0.504559 -0.203070 -0.314487 0.091399 0.039219 -0.015033 0.167326 -0.128478 0.131587 -0.279630 -0.124120 -0.225130 -0.133759 -0.185779 0.059333 -0.320266 0.084635 0.135869 0.029854 -0.231383 -0.253908 -0.740505 -0.227570 -0.082055 0.170611 -0.198104 -0.431172 0.364405 -0.282038 -0.233329 0.008516 0.310566 0.533010 0.041398 -0.453065 0.468703 -0.389648 0.040713 -0.183489 0.023360 0.055314 0.491125 -0.341757 0.100637 -0.041893 -0.156532 
之 0.067634 0.216542 -0.232564 0.183937 0.071338 0.195691 -0.301708 -0.029913 -0.131629 0.045286 0.087275 0.058571 0.141187 0.084289 -0.009238 0.009484 -0.229566 0.040172 0.059386 -0.271785 -0.112930 -0.009363 0.174640 0.015540 0.263130 -0.059343 0.064373 0.197411 0.026700 -0.297564 -0.113720 0.063815 0.139424 0.059707 -0.041064 -0.199619 0.098351 0.157587 -0.203992 -0.041218 -0.082302 -0.038432 -0.235727 0.124297 0.103224 0.346024 -0.148834 0.056145 -0.159833 -0.284056 
女 0.300905 0.502115 -0.293154 0.099408 0.222230 0.318826 0.044746 0.245699 -0.132708 0.070462 0.080425 -0.027679 -0.234726 0.010913 0.077640 0.101190 0.201096 -0.033918 0.241765 0.081286 0.114935 -0.023729 -0.143212 -0.248087 0.122761 -0.436968 0.317410 0.061600 -0.268636 -0.232740 -0.504871 0.230342 0.140019 0.026369 0.177441 -0.427358 0.020437 -0.164217 -0.562369 0.192083 -0.148363 0.156648 -0.532418 -0.213654 -0.374259 0.062514 -0.168176 -0.072742 -0.288739 -0.475673 
度 0.078592 0.110150 0.144122 0.201085 0.030026 0.066855 -0.528476 -0.178856 0.115855 0.118437 -0.211641 -0.245526 0.290426 0.124837 -0.090192 -0.009975 -0.147914 0.022484 0.202703 -0.400062 -0.329493 0.237305 -0.069431 0.103024 0.041215 -0.384713 0.385086 0.107169 0.082278 -0.309827 -0.116849 -0.050085 -0.237368 0.068153 0.219505 0.234326 0.486048 0.176726 -0.201724 -0.094565 0.139295 0.141070 -0.005755 0.578198 0.003725 0.189190 -0.194694 0.368928 0.188695 -0.162867 
合 0.073684 0.441471 0.017805 0.343257 0.895453 0.277523 -0.049280 -0.379044 0.323499 -0.080129 -0.114742 -0.008791 0.129522 -0.094101 -0.226233 0.543655 -0.132042 -0.014827 0.195695 -0.218171 -0.370855 0.302040 0.234527 0.132874 0.033548 -0.213582 0.141411 -0.042884 0.089608 -0.098389 0.142721 -0.063614 -0.049342 -0.168649 0.307058 0.491717 -0.155636 -0.179182 -0.580437 0.377098 -0.000593 -0.109711 -0.282492 0.158878 0.166701 -0.064603 -0.286560 -0.229921 -0.028446 -0.021282 
提 -0.065693 0.291391 0.496040 -0.352093 0.002774 0.101999 -0.095370 0.018415 -0.211900 -0.058273 -0.125206 -0.063548 -0.123680 0.215566 0.034655 0.237299 -0.363860 -0.182537 0.014222 -0.345153 -0.012342 0.542137 0.175126 0.123930 -0.109970 -0.313056 0.439478 -0.017881 -0.125555 -0.418238 0.013479 -0.207181 0.233923 -0.032825 -0.052632 0.316213 0.179465 0.268964 -0.433818 0.063737 0.055736 -0.133021 -0.038445 0.292110 -0.199300 0.108083 -0.098599 0.399496 -0.275574 -0.157145 
制 0.039878 0.198244 0.195406 0.388386 0.209580 0.090043 -0.431564 -0.337161 0.211666 0.091496 -0.274634 -0.291719 0.394288 0.183463 -0.002686 0.347236 -0.092498 0.092252 0.197235 -0.205340 -0.146133 0.465103 0.010634 0.283489 0.040910 -0.236504 0.654157 0.111022 0.177217 0.002861 -0.015462 -0.189407 0.138120 0.206551 0.363658 0.200721 0.175945 0.364703 -0.360287 -0.107551 0.356748 -0.090931 -0.480506 0.536286 0.121655 -0.072610 -0.053359 -0.034811 0.151963 0.154666 
保 0.098177 0.180337 0.186833 0.091662 0.184182 -0.311538 -0.263381 -0.387364 -0.224957 0.333529 -0.135522 -0.442624 -0.236962 -0.075023 -0.543595 0.003326 -0.389343 0.222815 0.114905 -0.099983 -0.033501 0.143876 -0.014744 0.071144 0.308830 0.076554 0.411263 -0.417914 -0.036396 0.170766 -0.433979 -0.200581 0.290276 -0.175558 0.047906 0.330640 0.202230 0.156586 -0.711800 0.318455 -0.039658 0.014759 -0.033074 1.029777 0.283695 0.204182 -0.057380 0.091631 -0.129662 0.402753 
外 -0.000315 -0.000775 -0.059204 -0.027504 0.359111 0.011829 -0.180716 0.129634 -0.074789 0.306169 -0.044861 0.197706 -0.036743 0.060736 -0.072795 0.193128 0.112037 0.187968 0.127502 -0.283557 -0.226505 -0.017992 0.088264 0.171755 0.014746 -0.054092 0.135470 -0.000483 -0.124016 -0.271675 -0.246320 0.132817 0.008994 0.073674 0.032268 0.062714 -0.131342 -0.123158 -0.623314 0.182250 -0.206228 -0.059258 -0.236273 0.049807 0.085526 0.141872 0.099797 0.184165 -0.051824 -0.303508 
》 0.247901 0.084154 0.298071 0.263842 0.627832 0.204682 -0.511600 -0.228631 0.172307 0.068956 0.074645 0.095346 0.059918 0.741426 -0.375467 0.430232 0.085396 -0.076885 -0.112314 -0.038878 -0.472675 0.098873 0.377540 -0.421592 -0.015751 -0.503546 0.047816 0.100868 -0.421579 0.126363 0.109655 0.040019 0.297788 -0.376750 -0.111770 -0.435270 0.322250 -0.162811 -0.346148 -0.359911 0.517405 -0.240854 -0.463852 0.266053 0.164597 -0.006673 -0.639305 0.299447 -0.168753 -0.389651 
《 0.334376 0.087434 0.212576 0.260972 0.647132 0.314370 -0.511459 -0.367302 0.162335 0.032135 0.105042 0.092575 -0.014924 0.564604 -0.402326 0.303501 0.036052 -0.107971 -0.081262 0.079589 -0.466744 0.223002 0.246964 -0.308389 0.164081 -0.450649 0.102587 0.106293 -0.262080 0.370125 -0.034251 0.106091 0.285197 -0.348533 -0.035573 -0.429120 0.189095 -0.147068 -0.383890 -0.371502 0.389544 -0.178456 -0.409491 0.435052 0.256512 0.100442 -0.610013 0.292719 -0.003754 -0.282062 
据 -0.268918 -0.152350 -0.107742 -0.019719 0.749958 0.199724 -0.099372 -0.147142 -0.183504 0.296582 -0.228107 -0.025274 -0.002270 -0.323694 -0.413819 0.108527 -0.136141 -0.055385 -0.294530 -0.338143 -0.291802 0.384905 0.579968 0.005509 -0.214146 -0.496324 -0.014812 -0.226438 -0.252678 -0.287074 -0.379627 -0.161333 0.181287 -0.319088 -0.019651 -0.358106 -0.015672 -0.110853 -0.304738 -0.058070 0.029132 0.005441 -0.383512 0.183750 0.379031 0.022669 -0.142046 0.517789 0.139387 -0.042490 
起 0.182592 -0.008531 -0.164649 -0.042079 0.260566 0.087620 -0.157078 0.186862 0.037687 0.120494 -0.013023 0.136713 -0.090994 0.165784 0.089310 -0.058955 0.035591 -0.045875 0.233089 -0.142499 0.097624 0.294458 0.151873 -0.017865 -0.010501 0.064855 0.048713 0.278314 0.148463 -0.137109 -0.164164 -0.162551 0.193903 0.183735 0.195450 -0.111941 -0.063438 0.027439 -0.349310 0.129033 -0.136139 0.017328 -0.217784 0.011676 -0.198591 0.156944 -0.488409 0.215002 -0.154184 -0.338453 
情 0.005385 0.339993 0.117757 -0.112129 0.142448 0.487411 -0.055514 -0.347682 0.013127 0.291745 -0.231451 -0.018678 0.256969 0.093035 -0.190763 0.013461 0.020876 0.058651 0.468004 -0.249170 -0.078011 0.005896 0.355210 0.126977 0.176333 -0.307892 -0.086240 -0.036478 -0.170456 -0.472845 -0.107126 0.034495 0.044344 -0.223803 0.384942 -0.422467 -0.257869 0.130932 -0.147908 -0.011303 -0.056326 0.394455 -0.284283 0.146388 0.050778 -0.118876 -0.596175 0.054644 -0.107274 -0.359718 
： 0.213243 0.297835 0.259898 0.299138 0.097377 -0.079652 -0.037677 0.059847 0.036261 0.023550 0.002983 -0.062508 -0.218447 0.179007 0.196282 -0.261422 0.037039 -0.089913 0.087417 -0.064510 -0.209166 -0.152650 0.404787 -0.114933 -0.098757 -0.102523 0.071909 -0.079833 -0.143462 -0.225808 -0.195815 0.112044 0.268953 -0.222465 0.158523 -0.221078 -0.223905 0.001277 -0.023475 0.090369 -0.277516 -0.298020 -0.201212 0.272012 -0.240496 0.059868 -0.440901 0.505913 -0.294206 -0.224564 
产 -0.047894 0.345699 0.246767 0.133425 0.392102 -0.470633 -0.123240 -0.095354 -0.138856 0.353150 -0.253765 -0.145934 0.230481 -0.124905 0.103965 -0.063845 -0.412509 0.158861 0.083041 0.097668 -0.316713 0.557540 -0.115559 0.205165 0.286304 -0.143959 0.058909 0.177479 0.123420 -0.071218 -0.353741 -0.289525 -0.157928 0.150751 0.174844 0.234472 0.126587 -0.052368 -0.553957 0.269618 -0.257068 -0.194813 -0.535199 0.310871 0.542280 -0.046724 0.220438 0.103752 0.328216 0.271981 
所 0.091727 0.323693 0.104734 0.122199 0.210716 0.075642 -0.036982 0.066074 0.114247 0.371712 -0.096924 -0.058937 0.055270 -0.027389 -0.312743 0.159325 -0.187955 0.032836 0.082171 -0.194384 0.089401 0.075974 -0.067861 0.144439 -0.061165 0.039798 0.389925 0.158559 0.057283 -0.447980 -0.201942 0.150613 0.162700 -0.204326 -0.090307 -0.094602 -0.091239 0.292554 -0.278013 -0.145118 -0.286027 -0.183819 -0.457819 -0.023639 -0.076450 0.167222 -0.041889 0.187726 -0.075871 -0.068558 
此 -0.065250 -0.047027 0.149794 -0.017912 0.069166 0.240390 -0.248448 -0.047278 -0.234478 0.116848 -0.112141 -0.111442 0.057075 0.077693 -0.099895 0.087611 -0.269388 0.003256 0.174404 -0.293759 -0.134845 -0.011270 0.342479 0.175246 -0.022496 -0.140415 0.091131 -0.037181 -0.098304 -0.330708 -0.160014 0.119418 0.057466 0.089993 0.020981 -0.267921 -0.198748 0.137735 -0.226100 0.097891 -0.201470 -0.062841 -0.225586 0.200028 0.121064 0.058002 -0.060277 0.261513 -0.105497 -0.341331 
点 0.280786 -0.196866 0.028242 0.369509 0.186718 0.065590 0.013990 0.025062 0.057064 0.079790 0.025276 0.048206 -0.015814 -0.037640 0.063114 -0.158314 -0.084668 -0.252856 0.178383 -0.436021 -0.172756 0.111810 0.023673 0.120720 0.288933 0.009160 -0.130926 0.276766 0.071932 -0.284593 -0.456841 -0.288759 0.195955 0.038363 0.320739 0.182495 0.224011 0.073701 -0.270869 0.327230 -0.243211 -0.018322 0.007522 0.086978 -0.059164 -0.071120 -0.480019 0.337980 -0.262181 0.051654 
间 0.042305 -0.110998 0.054756 0.054468 0.057775 0.319667 -0.309351 0.089986 -0.071793 -0.021400 0.148745 0.208352 -0.049270 -0.168962 -0.126475 -0.009834 -0.051199 0.196253 -0.109858 -0.563934 -0.136569 -0.065226 0.134045 0.071477 0.187912 -0.097896 -0.041573 0.289114 0.119661 -0.291994 -0.168029 0.348065 0.246966 0.281262 0.080814 0.107283 0.334186 0.128527 -0.431380 0.256809 -0.375717 0.264098 -0.102443 0.084752 0.259551 0.076947 -0.341076 -0.000089 -0.245569 -0.125334 
从 0.112361 -0.056020 0.024322 0.189435 0.285672 0.184863 -0.225372 0.109229 -0.145030 0.217707 -0.128019 0.068426 0.011752 -0.044418 0.024461 -0.195286 0.080592 -0.036767 0.131620 -0.224970 -0.124044 0.268120 0.059492 0.090036 0.060095 0.015691 0.152994 0.045604 0.101153 -0.051466 -0.258200 0.117932 0.104633 0.104453 -0.022400 0.070354 0.210077 0.218249 -0.282795 0.013466 -0.188459 -0.007893 -0.139449 -0.023422 0.157970 0.076999 -0.351787 0.235377 -0.056616 -0.153391 
但 0.084733 0.256070 0.025619 0.106673 -0.092193 0.234475 -0.129484 0.078980 -0.136734 0.370051 -0.010553 -0.087578 -0.247268 0.012938 0.035568 -0.266286 -0.023910 0.065348 0.237382 -0.371234 -0.233743 0.132986 0.184093 0.138998 0.086864 -0.012173 0.169995 0.051013 0.091640 -0.319684 -0.161631 0.059048 -0.089247 0.008617 0.067297 -0.316709 -0.127910 0.219500 -0.308437 0.178170 -0.250007 0.130396 -0.189575 0.108612 0.127305 0.040728 0.028549 0.119581 -0.127261 -0.190344 
位 0.250634 0.255278 -0.064012 0.188476 0.217734 -0.221695 -0.020667 0.059468 -0.066496 0.395542 0.000906 0.011435 0.043170 -0.118773 -0.075964 0.160137 -0.044951 -0.248849 0.026306 -0.415104 -0.100071 -0.078405 0.014486 0.165286 0.015721 -0.047746 0.503667 -0.041918 -0.280147 -0.033533 -0.396153 0.195376 -0.042445 -0.136479 -0.294695 0.342613 0.139749 0.204801 -0.346569 0.425350 -0.038598 0.013713 -0.478674 0.027249 -0.071455 -0.072518 -0.214852 -0.008879 -0.124089 -0.175305 
着 0.458983 0.237989 -0.239104 -0.114340 0.394255 0.134440 -0.212236 0.713488 -0.046522 0.242772 -0.162471 0.112463 -0.078828 0.078750 0.302316 -0.175476 0.330183 0.200008 0.047326 -0.045145 -0.028413 0.099840 -0.030153 0.096952 0.390422 0.318220 0.364345 0.122788 0.028250 0.080453 -0.157266 -0.203883 0.060384 -0.020682 0.373142 -0.057932 0.053213 0.124112 -0.474664 0.043658 -0.145090 0.179866 0.036444 -0.004853 -0.197391 0.120138 -0.384798 0.068743 -0.178032 -0.218230 
电 -0.185369 -0.159481 0.522192 -0.022967 0.351423 0.161015 -0.492612 0.178545 0.339047 -0.097119 0.392767 0.171464 -0.127436 0.076172 0.096329 -0.101799 0.326109 -0.124481 -0.214771 -0.073546 -0.065116 0.591510 0.510452 -0.302955 0.441396 -0.072842 0.248655 -0.106144 0.209013 -0.029733 -0.209893 0.127821 0.229841 0.395461 -0.366281 0.270155 -0.024318 -0.075716 -0.637643 -0.110986 -0.212639 -0.074805 -0.229601 0.410457 0.127108 -0.477436 -0.564104 0.049784 0.317579 -0.381956 
内 0.023271 -0.093216 0.050204 0.104055 0.222619 -0.048211 -0.319678 0.086690 0.110722 0.117946 -0.290130 0.211531 0.215338 0.037612 0.051686 0.235229 0.102921 0.182106 -0.026636 -0.236970 -0.180788 -0.258206 -0.016976 0.273383 0.341587 -0.229950 0.274521 0.012311 0.030151 -0.488643 -0.149627 0.012378 0.094354 0.097704 -0.148377 0.281241 -0.126625 0.041168 -0.592588 0.073088 -0.185471 -0.161168 -0.323596 -0.006213 -0.072675 0.282794 -0.037717 0.223679 0.038282 0.030375 
示 0.021105 -0.094175 0.142737 -0.148591 0.050783 -0.001434 0.037931 0.176022 -0.155757 0.099603 -0.575773 -0.057464 0.069998 -0.112533 0.098945 -0.069683 -0.371819 -0.375817 -0.130663 -0.255591 -0.192948 0.162836 0.308960 0.002324 -0.037475 -0.580982 0.460843 -0.349645 -0.258943 -0.312359 -0.461082 0.161487 -0.008204 -0.030567 0.141872 -0.265300 -0.185439 0.035243 -0.179797 0.125752 -0.075913 -0.146766 -0.199665 0.317774 0.140815 -0.056769 -0.063662 0.474385 0.066759 -0.330131 
已 -0.189973 -0.141916 -0.151260 0.093876 0.365195 0.137915 -0.101068 0.027309 -0.234544 0.040339 -0.324256 -0.090040 -0.040901 0.046276 -0.037389 -0.022914 -0.066359 0.028952 0.287448 -0.369997 0.158057 0.309093 0.207107 0.019636 -0.076853 -0.146783 -0.041716 0.053412 0.084345 -0.104192 -0.272038 0.022161 -0.137463 0.111526 0.012054 -0.215693 0.045138 0.292382 -0.392346 0.198335 -0.145674 0.031451 -0.430474 -0.081982 0.336758 0.227828 -0.143124 0.173006 -0.146844 -0.223439 
展 0.049837 0.478289 -0.112252 -0.257706 0.490968 -0.048846 -0.034551 -0.103852 -0.258943 -0.103630 -0.607186 0.248298 0.314621 0.312077 0.039621 -0.063361 -0.525023 -0.199271 0.053100 -0.414658 0.095037 0.609508 -0.102640 0.181028 0.417371 0.079252 -0.009374 0.018479 -0.212491 -0.040056 -0.118265 -0.321997 -0.146723 0.133745 0.521263 0.437443 0.101392 -0.078541 -0.233217 0.125314 -0.259843 -0.286589 -0.053505 0.361143 0.318039 0.309572 -0.116000 0.469920 -0.043355 0.147364 
并 0.011061 0.038370 0.121912 -0.098550 0.156545 0.349398 -0.327995 0.012979 -0.020225 0.012303 -0.148785 -0.220960 -0.096902 0.105337 0.024068 0.115330 -0.166106 -0.098592 0.229637 -0.269094 0.020724 0.241241 0.153482 0.106215 -0.063700 -0.102275 0.321911 -0.016180 -0.000524 -0.241532 -0.025016 0.074298 0.161572 -0.038506 -0.041498 -0.151638 -0.282063 0.219796 -0.414067 0.140858 -0.012093 0.140415 -0.360224 -0.006526 0.216991 0.198540 -0.065300 0.145449 -0.019755 -0.159210 
入 0.211142 0.239426 0.316801 0.122696 0.174496 0.201662 -0.132829 0.199644 -0.099177 0.241365 -0.168078 0.184560 0.290485 -0.063265 -0.204057 -0.002795 -0.089616 0.001309 0.293672 -0.523147 0.174134 0.274599 -0.251829 -0.202760 0.073817 -0.013216 0.192761 -0.010468 0.253045 -0.325310 -0.239704 -0.023256 0.076919 -0.062371 0.084621 0.220493 0.477103 0.058414 -0.280012 0.037707 -0.107866 -0.009746 -0.221451 -0.038972 0.294461 0.215161 -0.126407 0.075509 0.264132 0.047655 
去 0.476464 -0.019705 -0.011920 0.232817 0.177335 0.062188 -0.166778 0.043376 -0.245409 0.361635 0.056915 -0.066917 -0.182143 0.049538 0.151462 -0.287331 0.198183 0.117574 0.067304 -0.249985 0.101423 0.271817 0.183071 -0.228106 -0.079490 0.081566 0.120531 0.139248 0.038024 0.198196 -0.275500 0.063541 -0.019120 0.009130 -0.020014 -0.071603 0.084024 0.162033 -0.424042 0.089044 -0.035535 -0.073153 -0.063138 -0.002509 0.088894 -0.015605 -0.387376 0.457930 -0.321345 -0.352743 
没 0.125428 0.206220 0.156301 0.226271 0.009881 0.058712 -0.167991 0.129362 -0.106362 0.353607 0.037749 -0.260347 -0.243830 0.000709 0.061467 -0.287109 0.156598 0.098916 0.253375 -0.444094 0.046486 0.057067 0.390850 -0.009726 -0.082638 0.313107 0.293265 0.005565 0.020749 -0.136356 -0.017269 0.070423 0.029674 -0.166882 -0.074492 -0.305729 -0.290601 0.132756 -0.319305 0.133776 -0.329646 0.073363 -0.280393 0.081556 0.090713 -0.075809 -0.152797 0.322982 -0.333717 -0.078662 
路 0.047301 0.023521 0.071495 -0.049795 0.704135 -0.326797 -0.267188 0.594437 -0.413681 0.028477 0.284164 0.212136 0.073088 0.170712 -0.354140 -0.162657 -0.239744 -0.028882 0.223794 -0.563224 0.132105 -0.018710 0.331832 0.628371 0.355500 0.145232 0.083837 -0.234122 -0.067322 -0.009766 -0.313567 0.071822 0.484189 0.161064 0.345850 0.511497 0.249407 0.231687 0.167578 -0.264668 -0.341879 -0.146529 -0.019164 -0.404243 0.368960 0.183623 -0.166858 0.036361 -0.367579 -0.230211 
省 0.376198 0.124168 0.025296 -0.230816 0.715477 -0.398659 0.016741 -0.411217 -0.023284 0.129799 -0.152843 -0.147120 0.121977 -0.110183 -0.227024 -0.091789 -0.354252 -0.048092 -0.210962 -0.493938 -0.167624 0.353693 -0.279638 0.066011 0.097506 -0.221274 0.107684 -0.663279 0.265610 0.108906 -0.177666 0.360746 0.056215 0.399349 -0.155251 0.227001 0.035622 0.537020 0.055010 0.234798 0.058020 -0.559380 -0.220326 0.135132 0.116913 0.557990 -0.373395 0.906019 -0.058161 -0.323566 
里 0.385522 0.295652 -0.202894 0.198706 0.112916 -0.050597 -0.439696 0.400365 -0.049721 0.294661 0.132078 0.476918 -0.131263 0.069346 0.112972 -0.291537 0.433130 0.017762 0.036036 -0.055380 0.133441 -0.107295 0.302212 0.217352 0.049675 0.032213 0.011045 -0.090749 0.014683 -0.144939 -0.389541 0.178633 0.310828 -0.050230 -0.337020 0.119980 0.066671 0.217792 -0.423840 0.122016 -0.229831 0.070845 -0.178397 -0.028795 0.043420 -0.000680 -0.261375 0.293180 -0.061519 0.021435 
两 0.166394 0.061019 -0.329020 -0.039058 0.298198 0.123356 -0.229346 0.190833 0.036813 0.122503 0.095816 0.000706 0.120664 0.113494 0.015227 0.027722 0.154168 -0.074049 0.094041 -0.245487 -0.016648 0.057834 0.099629 0.004880 0.060610 -0.038712 0.045608 -0.066962 -0.097979 -0.165943 -0.080254 0.007371 -0.015617 0.161178 0.053694 0.054593 0.078364 0.064666 -0.486638 0.404860 -0.183038 -0.050824 -0.306235 -0.115885 0.067522 -0.015425 -0.181485 0.131544 -0.289884 -0.313547 
性 0.066923 0.468253 0.069599 0.198233 0.144237 0.318463 -0.222754 -0.259264 -0.148310 -0.007990 -0.017885 -0.151716 0.152023 0.120659 -0.224997 0.166691 0.022081 0.329336 0.151242 -0.053681 -0.349158 0.327164 -0.248059 0.104676 0.343046 -0.360283 0.196206 -0.077946 -0.045859 -0.640136 -0.067655 -0.223920 -0.039482 0.064303 0.487629 -0.188623 0.004106 -0.194097 -0.294380 0.098881 -0.391812 0.208945 -0.481883 0.137377 -0.401179 -0.008744 0.091764 -0.151071 0.020544 -0.148615 
正 -0.103453 0.122363 0.132928 0.112965 0.166073 0.238513 -0.257988 0.069854 -0.069639 0.137237 -0.106605 -0.031150 0.173188 0.019257 -0.072116 -0.026627 -0.246530 -0.028109 0.197056 -0.378199 -0.032057 0.208080 0.067994 0.213065 0.014429 0.053661 0.193693 0.073519 -0.153754 0.109076 0.014586 0.164887 0.351466 0.062747 0.281387 -0.061692 0.025181 0.112318 -0.276513 -0.033135 -0.105887 -0.076148 -0.155938 0.153202 0.079950 0.270181 -0.197377 0.182277 -0.213739 -0.175671 
明 -0.077460 0.155324 0.296033 -0.016564 -0.108630 -0.001227 0.087577 0.064002 -0.101007 0.096689 -0.369512 -0.170564 0.093884 -0.077896 0.049077 0.106667 -0.151025 -0.104342 0.076849 -0.190336 -0.167922 0.105499 0.261351 -0.074202 0.102478 -0.518334 0.318511 -0.243003 -0.167861 -0.063360 -0.011547 -0.142937 0.145412 -0.148945 0.269313 -0.508269 0.082052 -0.007978 -0.223200 -0.121300 -0.087605 -0.175754 -0.394389 0.327607 0.101129 0.107413 -0.221554 0.488018 -0.295064 -0.360503 
设 -0.115367 0.378696 -0.115364 0.368380 0.426160 -0.310211 -0.243085 0.090569 0.163012 -0.140585 -0.323866 0.158434 0.433708 -0.095195 -0.131528 0.136098 -0.314271 0.131776 -0.036718 -0.683645 0.218533 0.301224 0.093658 -0.066472 0.508779 -0.247324 0.490844 -0.085481 -0.211169 -0.066864 -0.000840 -0.285666 0.543779 0.251978 0.185149 0.831089 -0.045244 0.198451 -0.291982 0.072145 0.115611 -0.087163 -0.255674 0.325717 0.263448 0.187157 0.132680 0.298794 -0.050435 0.304382 
美 -0.044545 0.282965 -0.237282 0.195756 0.377295 0.259033 -0.461301 0.010579 0.032388 0.223671 0.029042 0.318346 0.037213 0.031450 -0.126191 0.117360 -0.102664 0.080912 -0.007116 0.005230 -0.192018 0.071489 0.109603 -0.236494 0.026938 -0.488790 0.013558 0.274783 -0.113693 -0.174867 -0.234631 0.046543 0.053679 -0.353804 0.061731 -0.158053 -0.056963 -0.406948 -0.493551 -0.044157 -0.228731 -0.087992 -0.023653 0.389451 0.153278 0.451854 0.006586 0.371602 0.076890 -0.225074 
因 -0.166804 0.144428 0.253576 0.161115 0.000147 0.104886 -0.144674 -0.084910 -0.209499 0.180166 0.099719 -0.151039 -0.167218 -0.044545 0.077366 0.064965 -0.049819 0.178076 0.397002 -0.160043 -0.133495 0.106269 0.094501 0.222762 0.040472 -0.240387 -0.034723 0.055217 0.148670 -0.176312 -0.129048 0.013330 0.050795 0.141683 0.068486 -0.124380 -0.135307 0.205675 -0.358841 -0.071342 -0.331514 0.118697 -0.658531 0.181823 -0.240779 0.102267 0.006962 0.049003 -0.142222 -0.388110 
平 -0.053597 0.516374 0.279879 0.058907 0.191819 0.138559 -0.294324 0.161658 -0.088501 0.125691 0.265823 -0.160633 0.209348 -0.036030 -0.114561 -0.330558 -0.184274 -0.054137 -0.589297 -0.596886 0.165983 0.314617 -0.059905 0.193424 0.271234 -0.353618 -0.206316 -0.059636 0.142250 -0.087281 -0.206805 0.024281 0.040537 0.088700 -0.056083 0.184392 0.301414 0.334902 -0.512358 0.099359 -0.268556 -0.317397 0.202308 0.042531 -0.052028 0.148716 0.062323 0.214512 0.131569 -0.105897 
相 0.132627 0.141481 0.075857 -0.155560 0.289259 0.051006 -0.251367 -0.232756 0.059180 0.340269 0.026640 -0.094733 0.047447 -0.061881 -0.266008 0.237692 -0.253573 -0.040815 0.023363 -0.532206 -0.097773 0.116896 0.293551 0.215523 0.266205 -0.348719 0.312816 -0.119983 -0.252188 -0.309638 -0.095384 0.148787 0.029736 -0.082825 0.234181 -0.210523 -0.306114 0.160086 -0.167361 0.320506 -0.105497 0.025075 -0.135507 0.255497 0.089452 -0.166825 -0.022063 -0.086170 0.120636 -0.306000 
海 -0.067611 0.094726 -0.167251 0.334052 0.686800 0.062739 -0.009387 0.238332 0.084451 0.416952 0.168614 0.187037 0.270570 0.147392 -0.192623 0.441080 -0.314827 0.255674 -0.129937 -0.000283 -0.086869 0.072823 0.039955 -0.086856 -0.065586 0.003843 0.174881 -0.307887 0.374941 0.078580 0.030105 0.175016 0.274287 0.147765 0.208659 0.323383 0.291440 -0.011523 -0.235272 0.222728 -0.461841 -0.293880 -0.076942 0.198021 0.596825 0.119340 -0.105646 0.535196 0.330043 -0.716306 
门 0.333736 -0.180274 0.118126 -0.282494 0.627133 -0.143670 -0.110647 -0.005460 0.043828 0.290737 -0.177890 0.305969 0.190131 -0.191740 -0.220744 0.400234 -0.021197 -0.242474 0.073679 -0.488473 0.239198 0.069872 0.326840 0.243828 0.224044 0.214142 0.539478 0.075816 -0.082355 0.044742 -0.303691 -0.031290 0.358878 0.097437 0.000290 0.181371 -0.060529 0.471085 -0.164298 0.273098 -0.118187 -0.054394 -0.283268 -0.041180 0.191070 0.022329 -0.235688 0.207970 -0.155079 -0.118802 
三 0.188047 0.155528 -0.249087 -0.255619 0.143593 -0.073225 -0.382731 -0.160815 -0.088802 0.128188 0.422659 -0.070839 0.289263 0.349092 0.157879 0.206324 -0.042412 -0.228186 0.055248 -0.442297 -0.279281 -0.041517 -0.166782 -0.113097 0.136305 -0.268614 -0.019931 -0.263889 0.117875 0.038680 -0.189879 -0.076788 0.095113 0.114671 -0.225985 0.197189 0.374660 0.168661 -0.355411 0.347654 0.041885 -0.297444 -0.421025 -0.139809 0.296704 0.115177 -0.523027 0.345680 -0.200418 -0.091614 
金 0.124137 0.311912 0.441341 0.063829 0.421704 -0.389348 -0.628630 0.416178 -0.037588 0.244827 0.072301 -0.314905 0.209913 -0.377207 0.232751 0.657392 -0.331331 -0.081172 0.616427 -0.068608 -0.041213 0.197995 0.060597 -0.399718 0.222593 0.116989 -0.159205 0.088511 -0.080990 -0.245651 -0.403552 0.014990 -0.054237 -0.283549 -0.422595 0.029018 0.016012 -0.204372 -0.480908 0.271158 0.174036 -0.056703 0.010939 0.281608 0.467086 0.145811 -0.098820 0.090134 0.310139 0.036369 
委 0.309041 0.325917 0.193620 -0.545697 0.264994 0.043987 -0.042471 -0.294491 0.157210 0.411111 -0.458986 -0.301352 0.501332 -0.129716 0.129705 0.175989 -0.233541 -0.407516 -0.342774 -0.591867 -0.203392 0.427689 -0.206166 0.270806 0.043450 -0.243582 -0.062389 -0.758495 0.316408 0.504574 -0.327380 0.866497 0.376974 0.309648 -0.050089 0.290468 -0.402985 0.501632 0.172616 0.309634 0.099259 -0.710302 -0.247487 0.016613 0.016930 0.495755 -0.576628 0.795143 -0.390834 -0.248969 
万 0.396729 -0.231579 0.289411 0.372537 0.418606 -0.386230 -0.435234 0.600775 0.057835 0.207672 0.481541 -0.217745 0.051200 -0.069183 0.135585 -0.009483 -0.257897 0.186120 0.127010 -0.234616 0.201298 0.531531 0.090979 -0.196787 -0.157101 -0.684652 -0.374020 0.104108 0.309024 -0.444038 -0.530567 0.081327 -0.325273 -0.446131 -0.562036 0.283322 -0.020475 0.058982 -0.366414 0.429415 0.204753 -0.125035 -0.150152 -0.305771 0.182151 0.369274 -0.197186 0.149017 0.076814 0.049734 
院 0.305412 0.142964 -0.259470 -0.171129 0.304643 -0.031139 -0.218758 -0.127309 -0.137359 0.058972 -0.581277 -0.278967 -0.473445 -0.231450 -0.536546 0.670681 -0.327138 -0.282173 -0.086220 -0.170246 0.153801 0.543843 -0.464020 -0.301023 -0.309525 -0.152999 -0.200448 -0.350721 0.314836 -0.026725 -0.338514 0.050277 0.408098 -0.033301 -0.173194 -0.103826 -0.289313 0.709027 -0.483256 -0.104983 -0.514844 -0.300120 -0.245743 -0.055889 0.097926 0.210048 -0.555002 0.223834 -0.112479 -0.068839 
如 0.159042 0.299617 0.117112 0.209910 -0.041669 0.252925 -0.148897 0.046693 -0.269836 0.245616 -0.012499 -0.037438 -0.016058 -0.058207 0.069655 -0.108415 -0.089242 0.118937 0.205892 -0.379812 -0.309176 0.077999 0.391547 -0.151198 -0.041493 -0.010704 0.060654 0.074946 0.030143 -0.137546 0.227561 -0.244886 0.202247 -0.064177 0.084024 -0.340066 -0.147763 0.035847 -0.167810 0.026548 -0.328294 -0.251168 -0.266356 0.219487 -0.024947 -0.021691 -0.162240 0.175828 -0.133954 -0.169015 
资 0.234490 0.485622 0.674008 0.065070 0.470898 -0.327344 -0.208987 0.010888 -0.014648 0.257114 -0.382542 -0.257236 0.052966 -0.220127 -0.005859 0.343622 -0.434869 -0.109744 0.266299 -0.321799 -0.093783 0.585154 0.183148 -0.364668 0.084435 -0.091753 -0.059032 0.216324 0.205684 -0.556375 -0.053913 0.083001 -0.116587 -0.107009 -0.127389 0.604118 -0.081869 -0.149098 -0.383109 0.468815 0.180174 0.088417 -0.117082 0.551340 0.591774 0.032150 0.071404 0.295032 0.653257 0.171366 
看 0.315672 0.218167 0.059144 0.039829 0.121964 0.243032 -0.004542 0.365044 0.058310 0.552023 -0.121345 0.058919 -0.289231 0.026153 -0.014666 -0.265943 0.374523 0.015060 0.175228 -0.407231 -0.131028 -0.017456 0.298301 0.022098 0.051255 0.157751 0.151231 -0.095889 -0.031113 0.071388 -0.164812 -0.104858 0.053121 -0.278914 -0.039016 -0.361708 -0.126798 0.009948 -0.441936 -0.012361 -0.225745 -0.193169 -0.038364 0.050855 0.032702 -0.078340 -0.415540 0.287054 -0.073227 -0.172793 
北 0.109726 -0.005444 0.053296 0.097902 0.689842 -0.298414 0.012558 -0.020830 -0.082994 0.171172 -0.032913 0.120406 -0.129035 -0.134827 -0.325352 0.130403 -0.308475 -0.300854 -0.321259 -0.142455 -0.321727 0.030626 0.070744 0.053229 0.240006 -0.145271 0.017753 -0.240832 0.127472 -0.177961 -0.062645 0.215889 0.187823 0.599769 -0.258929 0.192616 0.487268 0.351249 -0.024076 0.016987 -0.513590 -0.152745 -0.146073 0.049220 0.274646 0.144868 -0.459733 0.838449 0.119855 -0.641183 
意 0.250886 0.265568 0.327054 -0.277855 0.279117 0.095371 -0.012853 0.082948 -0.077664 0.038438 -0.012826 -0.133176 0.058591 0.522942 0.127248 -0.134944 -0.209794 0.131452 0.030380 -0.207998 -0.035562 0.377390 0.193857 0.234731 -0.187342 -0.066229 0.410991 0.095060 -0.281366 -0.177434 0.093427 -0.062885 0.328720 -0.148924 0.012386 -0.289552 -0.131981 0.029116 -0.403500 -0.127830 -0.290227 0.315366 -0.070599 0.106537 -0.266776 0.399423 -0.100369 0.320639 -0.217987 -0.332603 
老 0.050823 0.755636 -0.190033 -0.022686 0.091174 -0.478394 -0.100481 0.305638 -0.158772 0.459180 -0.108399 -0.120290 -0.333701 -0.085432 0.233447 -0.147376 0.066829 0.104227 -0.010226 0.155096 0.022447 0.144999 0.173888 -0.137595 0.009564 0.352456 0.054223 0.019121 -0.150628 0.080002 -0.390372 0.203688 0.029873 -0.131720 0.090108 -0.106345 0.176691 0.287107 -0.589251 0.073114 0.032123 -0.077552 -0.228263 0.058490 -0.119049 -0.007664 -0.601688 -0.097678 -0.363923 -0.202668 
手 0.180088 0.087099 -0.037656 0.106083 0.210462 0.670350 -0.539087 0.407243 0.001234 -0.246283 0.143678 -0.244389 -0.137556 0.197496 0.010918 0.100452 0.317245 -0.054252 -0.019271 -0.098074 -0.134632 0.335672 0.083827 -0.176793 0.002085 0.269363 0.637593 0.109122 -0.157774 -0.195432 -0.208314 -0.319093 0.039291 0.097047 0.067776 0.059241 0.045501 0.158250 -0.168650 0.552055 -0.197535 -0.129968 -0.186591 -0.019685 0.062423 -0.026463 -0.522124 -0.308687 0.169618 -0.072286 
品 0.144339 0.239250 0.477677 0.142345 -0.099466 -0.284355 -0.080153 -0.187335 0.215676 0.226115 0.041126 0.044087 0.030580 -0.213874 0.103749 -0.002969 -0.294263 0.299957 0.109373 0.372544 -0.400439 0.600743 -0.070759 0.546559 0.187536 -0.286981 0.325362 0.314753 -0.285484 0.052688 -0.174157 -0.553965 -0.012937 0.033152 0.132958 -0.130183 0.199495 0.036210 -0.822111 0.254352 -0.148486 -0.516298 -0.602531 0.195526 0.577202 0.091902 -0.197600 0.085134 0.598269 0.380807 
水 0.044834 0.159383 0.417866 0.463920 -0.123774 -0.048703 -0.396262 0.204637 -0.084445 0.229899 0.076816 0.312179 -0.198972 -0.226763 -0.105847 0.141986 0.104909 0.221937 -0.351108 -0.156542 0.114728 0.053046 0.287972 0.081674 0.062697 0.240735 -0.226362 -0.356079 0.360590 -0.274565 0.063926 -0.402494 0.202143 0.269003 0.240313 0.328688 0.484278 0.202308 -0.368706 0.197815 -0.054725 0.085507 -0.324376 0.235811 0.333368 0.275076 -0.026214 0.466583 0.343826 -0.241812 
. 0.681676 -0.444973 0.806424 0.668940 0.467857 -0.320434 -0.401187 0.389055 0.117317 0.303233 0.216972 -0.120927 0.055128 0.068485 -0.079157 -0.343818 -0.326087 0.019168 -0.022117 -0.615796 0.161877 0.195500 0.383658 -0.246712 -0.289790 -1.317185 -0.265262 0.055980 0.453175 -0.338371 -0.510382 0.187183 -0.838333 -0.470596 0.026503 0.713206 0.537243 -0.012362 -0.494541 0.386794 -0.458736 -0.187378 0.039262 0.017501 -0.247987 0.521314 -0.027839 -0.123125 0.402246 0.252819 
期 0.053966 0.015553 0.015276 -0.045417 -0.018354 0.357921 -0.408060 -0.302205 -0.371258 -0.027507 -0.013140 -0.233250 -0.040522 -0.028922 0.030369 0.063533 -0.535887 0.415255 0.117768 -0.623707 -0.308517 -0.085439 -0.184825 0.064577 -0.110837 -0.379909 -0.018937 0.338035 0.148358 -0.067649 -0.082180 0.196258 0.066128 0.023437 0.019811 0.135380 0.262289 0.134136 -0.370502 0.134830 -0.099790 0.126052 -0.257040 -0.019706 0.638787 0.105055 -0.488142 0.144580 -0.079683 -0.129213 
交 -0.125653 0.029241 0.293084 -0.288789 0.632413 -0.161992 -0.340185 0.039067 -0.280625 0.198778 -0.022461 0.041106 -0.194524 0.055955 -0.097678 0.267533 -0.063767 0.037473 0.268173 -0.373418 -0.150357 0.266386 0.399300 0.440830 0.201150 -0.305212 0.295992 -0.163926 0.053610 -0.374706 -0.008801 0.295024 0.077333 0.199103 0.043005 0.294382 -0.057895 0.066312 -0.032513 0.154111 -0.391714 -0.133910 0.006013 -0.203375 0.348339 0.065651 -0.198054 -0.084967 -0.258506 -0.150002 
然 0.132210 0.188666 -0.048635 -0.009893 -0.358566 0.220033 -0.335414 0.372348 -0.375444 0.280243 -0.163324 -0.167840 -0.466835 0.118781 -0.124956 -0.338707 0.083941 -0.283926 0.280186 -0.278509 -0.042351 0.036801 0.253981 -0.083842 0.391472 -0.005164 0.039483 0.104677 0.103136 -0.181913 0.000274 -0.255684 0.139003 0.100659 0.147477 -0.326442 0.069017 -0.047537 -0.195081 0.192329 -0.415818 0.123718 -0.274692 0.320601 0.245736 0.124146 -0.081425 0.174103 0.044966 -0.250177 
文 -0.019012 0.260661 0.122897 0.102824 0.261951 -0.126859 -0.071135 -0.095662 -0.171635 -0.209659 -0.512641 0.100104 0.104539 0.215839 0.203036 0.166341 -0.337925 -0.293947 -0.364819 -0.268357 -0.174449 0.253075 -0.059411 0.193465 0.393235 -0.330935 -0.034407 0.118715 -0.311056 -0.394049 0.155048 0.167526 0.275427 -0.502173 -0.108339 -0.111480 0.038967 -0.001225 -0.337555 -0.470313 -0.074768 -0.414028 -0.371394 0.341022 0.225790 0.377581 -0.346896 0.287727 0.083749 -0.089800 
问 0.325079 0.171909 0.455475 0.012268 -0.092515 0.224792 -0.064981 -0.350888 -0.210358 0.470344 -0.091613 -0.401578 0.267587 0.333653 0.295642 -0.084888 0.076169 -0.130945 0.503157 -0.255505 -0.045229 -0.071637 0.341804 -0.015545 0.253587 0.121839 -0.122438 0.232252 -0.449445 -0.453019 -0.583378 0.145258 0.503941 -0.360343 0.198636 0.506301 -0.273031 0.556664 0.078319 -0.078157 -0.366903 -0.199032 -0.307067 0.198802 -0.046113 -0.355344 -0.095288 0.272866 -0.125906 -0.356551 
城 -0.042010 0.362316 0.013313 0.222940 0.556551 -0.633576 -0.008423 0.069786 -0.237133 0.439326 -0.193056 0.468863 0.105786 -0.089301 -0.195463 -0.005442 -0.311367 -0.207775 0.086063 -0.197633 -0.012151 -0.189975 -0.016892 0.149859 0.425297 -0.339519 0.041585 -0.121796 0.117268 0.058511 0.009715 -0.362308 0.152951 0.214056 -0.039978 0.415345 0.428876 0.655668 -0.385772 -0.001891 -0.278673 -0.112034 -0.063347 0.056533 0.404106 0.244858 -0.528892 -0.006593 -0.068370 0.018893 
第 0.445849 0.100152 -0.199459 -0.150398 0.003120 0.126818 -0.403846 -0.203289 0.002092 -0.241004 0.258208 -0.184815 0.310044 0.521868 0.090657 0.170874 -0.055717 -0.351182 0.150183 -0.447256 -0.476753 -0.064799 -0.208499 -0.321415 -0.140524 -0.277641 0.139937 -0.400853 0.172073 0.056732 -0.337220 0.106637 -0.097624 0.105927 -0.384501 0.224321 0.549918 0.005887 -0.307742 0.498248 -0.070702 -0.302050 -0.549524 -0.194039 0.513196 0.085133 -0.532831 0.381897 -0.386257 -0.212846 
很 0.227373 0.576128 -0.051426 0.110430 -0.168208 0.212121 0.073919 0.123151 0.017753 0.288504 0.019794 0.216885 -0.326661 0.009347 0.110346 -0.389374 0.118626 0.216371 0.231603 -0.397521 -0.238357 0.167060 0.314665 0.316728 0.122899 -0.046004 0.214873 -0.059709 0.025539 -0.347361 -0.219720 0.019801 -0.176485 -0.069947 0.159223 -0.139641 -0.226318 -0.057214 -0.112467 -0.068410 -0.156961 0.139860 -0.285189 0.156295 -0.062775 0.104017 -0.184169 0.123254 -0.085509 -0.270912 
管 0.015295 0.290927 0.323062 0.151461 0.151016 -0.220944 -0.600222 -0.447475 0.073912 0.456950 -0.274701 -0.082788 0.078684 -0.299885 -0.207515 0.525115 -0.012367 0.107694 0.106544 -0.444324 -0.246028 0.417992 0.182766 0.429243 0.110129 -0.028653 0.485575 -0.275085 0.038842 0.055799 -0.216291 -0.137528 0.324307 0.204313 0.072182 0.498361 -0.174119 0.268602 -0.253024 -0.010542 0.098354 -0.078032 -0.215732 0.248159 0.135337 -0.209673 -0.172878 0.137536 -0.016968 0.220024 
调 0.113125 -0.044675 0.258297 -0.132578 0.216016 0.570261 0.122060 -0.322205 -0.031678 0.072775 -0.704808 -0.129336 0.434413 -0.278280 0.039509 0.201309 -0.074159 -0.176577 0.266899 -0.516567 0.108292 0.286140 0.304587 0.253490 -0.265352 -0.461719 0.116440 0.005716 -0.008264 -0.167142 -0.290110 -0.050912 0.095831 0.010678 0.585227 0.317926 -0.019529 0.554271 -0.259860 0.083151 -0.103040 -0.139601 -0.330891 0.269918 0.113875 -0.110594 -0.210111 0.192332 0.039979 -0.148905 
比 0.335453 0.276762 0.056170 0.226421 -0.020154 0.197680 -0.307554 0.143729 -0.131887 0.295630 0.180715 0.091050 0.106008 -0.098020 -0.270978 -0.335621 -0.032533 -0.105964 0.311710 -0.411166 -0.386840 0.088200 0.123050 0.191136 -0.323891 -0.700414 -0.001933 -0.145028 0.155650 -0.442138 -0.108006 -0.164150 -0.519274 -0.361516 -0.058179 0.226093 0.526386 -0.202757 -0.182730 0.588885 -0.401532 -0.252997 -0.017529 0.135942 0.096673 0.140763 0.045545 0.035174 -0.018629 -0.215459 
及 -0.057820 0.051804 0.280320 -0.148037 0.308788 -0.075376 -0.282030 -0.087398 0.016844 0.028795 -0.045985 0.100264 0.168380 -0.151118 -0.106149 0.403939 -0.062961 0.045073 0.392995 0.011209 0.030525 0.158064 -0.016921 0.187699 0.155431 -0.229414 0.203909 -0.109739 -0.066620 -0.278941 -0.142289 0.013528 0.146108 -0.053391 0.210141 0.278115 -0.043632 0.224498 -0.551960 -0.113029 -0.137489 -0.201460 -0.644192 0.149640 0.011241 0.072899 0.019685 0.125572 0.103791 -0.220371 
